{"learner":{"attributes":{"best_iteration":"99","best_ntree_limit":"100","scikit_learn":"{\"use_label_encoder\": null, \"n_estimators\": 100, \"objective\": \"multi:softmax\", \"max_depth\": null, \"max_leaves\": null, \"max_bin\": null, \"grow_policy\": null, \"learning_rate\": null, \"verbosity\": null, \"booster\": null, \"tree_method\": null, \"gamma\": null, \"min_child_weight\": null, \"max_delta_step\": null, \"subsample\": null, \"sampling_method\": null, \"colsample_bytree\": null, \"colsample_bylevel\": null, \"colsample_bynode\": null, \"reg_alpha\": null, \"reg_lambda\": null, \"scale_pos_weight\": null, \"base_score\": null, \"missing\": NaN, \"num_parallel_tree\": null, \"random_state\": null, \"n_jobs\": null, \"monotone_constraints\": null, \"interaction_constraints\": null, \"importance_type\": null, \"gpu_id\": null, \"validate_parameters\": null, \"predictor\": null, \"enable_categorical\": false, \"feature_types\": null, \"max_cat_to_onehot\": null, \"max_cat_threshold\": null, \"eval_metric\": null, \"early_stopping_rounds\": null, \"callbacks\": null, \"kwargs\": {\"num_class\": 5}, \"classes_\": [0, 1, 2, 3, 4], \"n_classes_\": 5, \"_estimator_type\": \"classifier\"}"},"feature_names":[],"feature_types":[],"gradient_booster":{"model":{"gbtree_model_param":{"num_parallel_tree":"1","num_trees":"500","size_leaf_vector":"0"},"tree_info":[0,1,2,3,4,0,1,2,3,4,0,1,2,3,4,0,1,2,3,4,0,1,2,3,4,0,1,2,3,4,0,1,2,3,4,0,1,2,3,4,0,1,2,3,4,0,1,2,3,4,0,1,2,3,4,0,1,2,3,4,0,1,2,3,4,0,1,2,3,4,0,1,2,3,4,0,1,2,3,4,0,1,2,3,4,0,1,2,3,4,0,1,2,3,4,0,1,2,3,4,0,1,2,3,4,0,1,2,3,4,0,1,2,3,4,0,1,2,3,4,0,1,2,3,4,0,1,2,3,4,0,1,2,3,4,0,1,2,3,4,0,1,2,3,4,0,1,2,3,4,0,1,2,3,4,0,1,2,3,4,0,1,2,3,4,0,1,2,3,4,0,1,2,3,4,0,1,2,3,4,0,1,2,3,4,0,1,2,3,4,0,1,2,3,4,0,1,2,3,4,0,1,2,3,4,0,1,2,3,4,0,1,2,3,4,0,1,2,3,4,0,1,2,3,4,0,1,2,3,4,0,1,2,3,4,0,1,2,3,4,0,1,2,3,4,0,1,2,3,4,0,1,2,3,4,0,1,2,3,4,0,1,2,3,4,0,1,2,3,4,0,1,2,3,4,0,1,2,3,4,0,1,2,3,4,0,1,2,3,4,0,1,2,3,4,0,1,2,3,4,0,1,2,3,4,0,1,2,3,4,0,1,2,3,4,0,1,2,3,4,0,1,2,3,4,0,1,2,3,4,0,1,2,3,4,0,1,2,3,4,0,1,2,3,4,0,1,2,3,4,0,1,2,3,4,0,1,2,3,4,0,1,2,3,4,0,1,2,3,4,0,1,2,3,4,0,1,2,3,4,0,1,2,3,4,0,1,2,3,4,0,1,2,3,4,0,1,2,3,4,0,1,2,3,4,0,1,2,3,4,0,1,2,3,4,0,1,2,3,4,0,1,2,3,4,0,1,2,3,4,0,1,2,3,4,0,1,2,3,4,0,1,2,3,4,0,1,2,3,4,0,1,2,3,4,0,1,2,3,4,0,1,2,3,4,0,1,2,3,4,0,1,2,3,4,0,1,2,3,4,0,1,2,3,4,0,1,2,3,4,0,1,2,3,4,0,1,2,3,4],"trees":[{"base_weights":[-6.5010935E-2,-3.5958657E-1,1.2084173E-1,-6.210469E-1,-3.0118296E-1,-4.689811E-1,3.155843E-1,8.77193E-2,-6.225481E-1,-4.601091E-1,-1.682556E-1,-5.9869796E-1,-2.7381033E-1,-6.145907E-1,5.042948E-1,-0E0,-6.240547E-1,1.5207373E0,-4.72518E-1,-3.7742785E-1,-2.757542E-2,-6.240735E-1,-5.0375134E-1,-6.071745E-1,1.3253197E-1,-6.1594003E-1,8.77193E-2,-6.118059E-1,6.8445367E-1,1.7231637E0,3.8461536E-1,2.5641024E-1,-4.8502395E-1,8.208955E-1,-3.9176214E-1,-6.082474E-1,3.6763024E-2,-6.091864E-1,-3.7010843E-1,8.77193E-2,-6.102838E-1,-6.081601E-1,1.2342376E0,8.77193E-2,-6.172941E-1,8.77193E-2,-6.137688E-1,-5.848261E-1,7.6674837E-1,1.8965516E0,5.2631575E-1,-4.9586776E-1,4.2944783E-1,-4.885639E-1,1.111111E0,-4.3209875E-1,1.3793103E0,2.9702967E-1,-4.1334182E-1,-1.2345678E-1,-6.184043E-1,-4.4493067E-1,1.4795889E-1,-6.162855E-1,9.0651554E-1,8.77193E-2,-6.134185E-1,-0E0,-6.1446714E-1,-5.555555E-1,1.3880843E0,-0E0,-6.186501E-1,-0E0,-6.157359E-1,9.6491224E-1,-6.004668E-1,-4.956268E-1,8.621807E-1],"categories":[],"categories_nodes":[],"categories_segments":[],"categories_sizes":[],"default_left":[0,0,0,0,0,0,0,0,0,0,0,0,0,1,0,0,0,0,0,0,0,0,0,0,0,0,0,0,0,0,0,0,1,0,0,0,0,0,0,0,0,0,0,0,0,0,0,0,0,0,0,0,0,0,0,0,0,0,0,0,0,0,0,0,0,0,0,0,0,0,0,0,0,0,0,0,0,0,0],"id":0,"left_children":[1,3,5,7,9,11,13,-1,15,17,19,21,23,25,27,-1,-1,29,31,33,35,-1,37,39,41,43,-1,45,47,49,-1,51,53,55,57,59,61,-1,63,-1,65,67,69,-1,71,-1,73,75,77,-1,-1,-1,-1,-1,-1,-1,-1,-1,-1,-1,-1,-1,-1,-1,-1,-1,-1,-1,-1,-1,-1,-1,-1,-1,-1,-1,-1,-1,-1],"loss_changes":[5.154271E2,5.5426514E1,6.6323724E2,7.611389E-1,6.2854156E1,3.6123352E1,7.622179E2,0E0,6.2161255E-1,3.4054077E1,4.7769814E1,1.7581482E0,7.785075E1,7.4823E-1,7.261002E2,0E0,0E0,1.3334827E0,1.2417419E1,1.15355E1,3.6331345E1,0E0,2.4038467E0,7.3534393E-1,2.1255798E2,7.508545E-1,0E0,7.4331665E-1,3.250819E2,4.7104645E-1,0E0,3.2589834E0,8.035706E0,6.2215104E0,9.721901E0,4.0127945E-1,4.6980026E1,0E0,2.7221815E1,0E0,7.414551E-1,5.979042E-1,2.9595184E1,0E0,6.1102295E-1,0E0,6.046753E-1,5.179947E0,3.5209277E2,0E0,0E0,0E0,0E0,0E0,0E0,0E0,0E0,0E0,0E0,0E0,0E0,0E0,0E0,0E0,0E0,0E0,0E0,0E0,0E0,0E0,0E0,0E0,0E0,0E0,0E0,0E0,0E0,0E0,0E0],"parents":[2147483647,0,0,1,1,2,2,3,3,4,4,5,5,6,6,8,8,9,9,10,10,11,11,12,12,13,13,14,14,17,17,18,18,19,19,20,20,22,22,23,23,24,24,25,25,27,27,28,28,29,29,31,31,32,32,33,33,34,34,35,35,36,36,38,38,40,40,41,41,42,42,44,44,46,46,47,47,48,48],"right_children":[2,4,6,8,10,12,14,-1,16,18,20,22,24,26,28,-1,-1,30,32,34,36,-1,38,40,42,44,-1,46,48,50,-1,52,54,56,58,60,62,-1,64,-1,66,68,70,-1,72,-1,74,76,78,-1,-1,-1,-1,-1,-1,-1,-1,-1,-1,-1,-1,-1,-1,-1,-1,-1,-1,-1,-1,-1,-1,-1,-1,-1,-1,-1,-1,-1,-1],"split_conditions":[1.8E1,8.000001E0,8.000001E0,2.000001E0,1.4000001E1,6.000001E0,8.000001E0,2.6315792E-2,2.000001E0,1.5E0,1.0000001E1,1.0000001E1,8.000001E0,-9.536743E-7,6.000001E0,-0E0,-1.872164E-1,2.000001E0,4.000001E0,1.5E0,2.5E0,-1.8722206E-1,4.000001E0,1.5E0,6.000001E0,4.000001E0,2.6315792E-2,2.000001E0,8.000001E0,1.5E0,1.15384616E-1,2.000001E0,-9.536743E-7,4.000001E0,1.5E0,1.5E0,2.5E0,-1.8275593E-1,6.000001E0,2.6315792E-2,2.000001E0,4.000001E0,4.000001E0,2.6315792E-2,2.000001E0,2.6315792E-2,2.000001E0,2.000001E0,8.000001E0,5.689655E-1,1.5789473E-1,-1.4876033E-1,1.2883435E-1,-1.4656918E-1,3.333333E-1,-1.2962963E-1,4.137931E-1,8.910891E-2,-1.2400255E-1,-3.7037037E-2,-1.855213E-1,-1.3347921E-1,4.438767E-2,-1.8488565E-1,2.719547E-1,2.6315792E-2,-1.8402556E-1,-0E0,-1.8434015E-1,-1.6666666E-1,4.1642532E-1,-0E0,-1.8559504E-1,-0E0,-1.8472077E-1,2.8947368E-1,-1.8014005E-1,-1.4868805E-1,2.5865424E-1],"split_indices":[30758,8196,23990,337,1051,12374,22210,0,4565,14816,13953,3811,3825,5698,8196,0,0,1062,23476,3827,18215,0,3825,5943,3813,21561,0,9617,4859,1051,0,24396,5273,23990,23476,27248,23990,0,3813,0,6400,24244,22210,0,6223,0,15667,3825,2982,0,0,0,0,0,0,0,0,0,0,0,0,0,0,0,0,0,0,0,0,0,0,0,0,0,0,0,0,0,0],"split_type":[0,0,0,0,0,0,0,0,0,0,0,0,0,0,0,0,0,0,0,0,0,0,0,0,0,0,0,0,0,0,0,0,0,0,0,0,0,0,0,0,0,0,0,0,0,0,0,0,0,0,0,0,0,0,0,0,0,0,0,0,0,0,0,0,0,0,0,0,0,0,0,0,0,0,0,0,0,0,0],"sum_hessian":[9.412801E3,3.6409602E3,5.7718403E3,6.6304004E2,2.9779202E3,1.4323201E3,4.3395205E3,1.2800001E0,6.617601E2,1.3552001E3,1.6227201E3,8.592001E2,5.7312006E2,7.315201E2,3.6080002E3,1.6000001E0,6.6016003E2,7.6800003E0,1.3475201E3,6.5184E2,9.7088007E2,6.7360004E2,1.856E2,3.1456003E2,2.5856003E2,7.3024005E2,1.2800001E0,5.0112003E2,3.1068801E3,6.0800004E0,1.6000001E0,2.2400002E1,1.3251201E3,7.0400004E0,6.4480005E2,9.600001E1,8.7488007E2,1.0176001E2,8.3840004E1,1.2800001E0,3.1328003E2,1.5488E2,1.0368001E2,1.2800001E0,7.2896E2,1.2800001E0,4.9984003E2,1.8880002E2,2.9180803E3,4.8E0,1.2800001E0,3.8400002E0,1.8560001E1,1.3228801E3,2.2400002E0,2.2400002E0,4.8E0,1.92E1,6.2560004E2,2.2400002E0,9.376001E1,1.6352E2,7.1136005E2,7.072E1,1.3120001E1,1.2800001E0,3.1200003E2,1.6000001E0,1.5328001E2,8.000001E0,9.568001E1,1.6000001E0,7.2736005E2,1.6000001E0,4.9824002E2,1.2800001E0,1.8752002E2,2.0480002E2,2.7132803E3],"tree_param":{"num_deleted":"0","num_feature":"30980","num_nodes":"79","size_leaf_vector":"0"}},{"base_weights":[2.1351632E-2,2.4197118E0,-1.250986E-1,-3.8461536E-1,2.42873E0,2.3817375E0,-2.6239842E-1,-3.8461536E-1,2.4378016E0,-4.3209875E-1,2.3964238E0,2.36185E0,-3.5709885E-1,5.670103E-1,2.4468005E0,-6.849315E-2,2.406937E0,-3.2679737E-2,2.404527E0,2.4235117E0,-4.3292165E-1,-3.8461536E-1,1.4035088E0,2.4522293E0,6.164383E-1,-3.508772E-1,2.415459E0,9.6491224E-1,-4.9586776E-1,-3.8461536E-1,2.4214494E0,9.5041317E-1,2.4457238E0,2.0641775E0,-4.7448838E-1,2.4558434E0,7.692307E-1,8.77193E-2,2.4218266E0,-3.8461536E-1,2.438562E0,8.77193E-2,1.235955E0,7.692307E-1,2.454822E0,1.3691931E0,2.1456072E0,2.2493572E0,-5.019452E-1],"categories":[],"categories_nodes":[],"categories_segments":[],"categories_sizes":[],"default_left":[0,0,0,0,0,0,0,0,0,0,0,0,0,0,1,0,0,0,0,0,0,0,0,1,0,0,0,0,0,0,0,0,0,0,0,0,0,0,0,0,0,0,0,0,0,0,0,0,0],"id":1,"left_children":[1,3,5,-1,7,9,11,-1,13,-1,15,17,19,21,23,-1,25,27,29,31,33,-1,-1,35,-1,-1,37,-1,-1,-1,39,41,43,45,47,-1,-1,-1,-1,-1,-1,-1,-1,-1,-1,-1,-1,-1,-1],"loss_changes":[3.3068098E3,1.463623E1,3.0546064E3,0E0,1.4724121E1,2.007959E1,2.091661E3,0E0,7.6799316E0,0E0,1.2049072E1,3.003711E1,1.7132295E3,3.6284208E0,3.8112793E0,0E0,1.1580322E1,3.3063536E0,1.4526367E1,4.734131E0,8.216218E2,0E0,0E0,1.3583984E0,0E0,0E0,6.538086E0,0E0,0E0,0E0,1.4692505E1,1.0838451E0,1.3433838E0,4.3988647E0,5.828047E2,0E0,0E0,0E0,0E0,0E0,0E0,0E0,0E0,0E0,0E0,0E0,0E0,0E0,0E0],"parents":[2147483647,0,0,1,1,2,2,4,4,5,5,6,6,8,8,10,10,11,11,12,12,13,13,14,14,16,16,17,17,18,18,19,19,20,20,23,23,26,26,30,30,31,31,32,32,33,33,34,34],"right_children":[2,4,6,-1,8,10,12,-1,14,-1,16,18,20,22,24,-1,26,28,30,32,34,-1,-1,36,-1,-1,38,-1,-1,-1,40,42,44,46,48,-1,-1,-1,-1,-1,-1,-1,-1,-1,-1,-1,-1,-1,-1],"split_conditions":[8.000001E0,2.000001E0,1.0000001E1,-1.15384616E-1,2.000001E0,8.000001E0,8.000001E0,-1.15384616E-1,8.000001E0,-1.2962963E-1,4.000001E0,4.000001E0,6.000001E0,2.000001E0,-9.536743E-7,-2.0547945E-2,2.000001E0,2.000001E0,2.000001E0,1.5E0,8.000001E0,-1.15384616E-1,4.2105266E-1,-9.536743E-7,1.849315E-1,-1.05263166E-1,4.000001E0,2.8947368E-1,-1.4876033E-1,-1.15384616E-1,1.0000001E1,4.000001E0,2.000001E0,2.000001E0,4.000001E0,7.3675305E-1,2.3076923E-1,2.6315792E-2,7.26548E-1,-1.15384616E-1,7.315686E-1,2.6315792E-2,3.7078652E-1,2.3076923E-1,7.364466E-1,4.1075793E-1,6.436822E-1,6.748072E-1,-1.5058357E-1],"split_indices":[18215,18784,18211,0,18793,14499,4859,0,14499,0,3811,12374,13988,22210,11847,0,18784,23171,3825,23476,13978,0,0,24013,0,0,12635,0,0,0,14499,13316,6400,23476,12869,0,0,0,0,0,0,0,0,0,0,0,0,0,0],"split_type":[0,0,0,0,0,0,0,0,0,0,0,0,0,0,0,0,0,0,0,0,0,0,0,0,0,0,0,0,0,0,0,0,0,0,0,0,0,0,0,0,0,0,0,0,0,0,0,0,0],"sum_hessian":[9.412801E3,5.4080005E2,8.872001E3,1.6000001E0,5.392E2,4.5984003E2,8.41216E3,1.6000001E0,5.3760004E2,2.2400002E0,4.5760004E2,2.9216003E2,8.1200005E3,2.88E0,5.3472003E2,1.9200001E0,4.5568002E2,5.1200004E0,2.8704E2,2.1472002E2,7.905281E3,1.6000001E0,1.2800001E0,5.3280005E2,1.9200001E0,1.2800001E0,4.5440002E2,1.2800001E0,3.8400002E0,1.6000001E0,2.8544003E2,3.8400002E0,2.1088002E2,1.2864001E2,7.7766406E3,5.312E2,1.6000001E0,1.2800001E0,4.5312003E2,1.6000001E0,2.8384003E2,1.2800001E0,2.5600002E0,1.6000001E0,2.0928001E2,1.5360001E1,1.1328001E2,7.68E1,7.6998403E3],"tree_param":{"num_deleted":"0","num_feature":"30980","num_nodes":"49","size_leaf_vector":"0"}},{"base_weights":[3.3036605E-2,2.2893617E0,-5.559365E-1,-4.8442903E-1,2.3047237E0,1.9096317E0,-5.9189606E-1,8.77193E-2,-5.642023E-1,-1.08401075E-1,2.3220334E0,2.4674647E0,4.9810842E-1,1.7775831E0,-6.140803E-1,-5.7239056E-1,1.3402061E0,2.465665E0,2.1058471E0,1.9047618E0,2.7349228E-1,2.417871E0,1.2333674E0,5.7213926E-1,-6.153052E-1,2.4827554E0,1.6191815E0,1.5979381E0,6.2402494E-2,2.3742454E0,4.9504947E-2,-4.3209875E-1,1.0344827E0,-3.5043168E-1,-6.1811435E-1,2.4794142E0,8.4169626E-2,1.111111E0,-8.547008E-2,9.6491224E-1,-6.3424945E-2,-0E0,1.4285713E0,3.333333E-1,-4.324477E-1,-6.1838895E-1,-0E0],"categories":[],"categories_nodes":[],"categories_segments":[],"categories_sizes":[],"default_left":[0,0,0,0,0,0,0,0,0,0,0,0,0,0,0,0,0,0,0,0,0,0,0,0,0,0,0,0,0,0,0,0,0,0,1,0,0,0,0,0,0,0,0,0,0,0,0],"id":2,"left_children":[1,3,5,7,9,11,13,-1,-1,15,17,-1,19,21,23,-1,-1,-1,25,-1,27,-1,29,31,33,-1,35,-1,37,-1,39,-1,41,43,45,-1,-1,-1,-1,-1,-1,-1,-1,-1,-1,-1,-1],"loss_changes":[1.2511412E4,8.415723E1,6.630674E2,5.7711434E-1,8.121582E1,8.346307E1,3.879392E2,0E0,0E0,1.0687886E1,5.4566406E1,0E0,9.501221E0,2.0893982E1,1.09470215E1,0E0,0E0,0E0,1.3815137E2,0E0,7.8738213E0,0E0,5.2665585E1,4.1799936E0,5.2038574E0,0E0,4.5028198E2,0E0,4.071096E0,0E0,2.1494117E0,0E0,2.364532E0,4.5609865E0,1.2233887E0,0E0,0E0,0E0,0E0,0E0,0E0,0E0,0E0,0E0,0E0,0E0,0E0],"parents":[2147483647,0,0,1,1,2,2,3,3,4,4,5,5,6,6,9,9,10,10,12,12,13,13,14,14,18,18,20,20,22,22,23,23,24,24,26,26,28,28,30,30,32,32,33,33,34,34],"right_children":[2,4,6,8,10,12,14,-1,-1,16,18,-1,20,22,24,-1,-1,-1,26,-1,28,-1,30,32,34,-1,36,-1,38,-1,40,-1,42,44,46,-1,-1,-1,-1,-1,-1,-1,-1,-1,-1,-1,-1],"split_conditions":[8.000001E0,4.000001E0,8.000001E0,4.000001E0,2.5E0,4.000001E0,8.000001E0,2.6315792E-2,-1.692607E-1,1.2000001E1,6.000001E0,7.4023944E-1,4.000001E0,4.000001E0,4.000001E0,-1.7171717E-1,4.0206185E-1,7.3969954E-1,8.000001E0,5.7142854E-1,1.5E0,7.2536135E-1,4.000001E0,3E0,2.5E0,7.448267E-1,6.000001E0,4.7938144E-1,1.5E0,7.1227366E-1,6.000001E0,-1.2962963E-1,6.000001E0,8.000001E0,-9.536743E-7,7.438243E-1,2.525089E-2,3.333333E-1,-2.5641026E-2,2.8947368E-1,-1.9027485E-2,-0E0,4.2857143E-1,1E-1,-1.2973432E-1,-1.8551669E-1,-0E0],"split_indices":[23990,18784,3811,1409,22210,12374,23998,0,0,10829,12374,0,23998,3825,3813,0,0,0,3825,0,18266,0,3813,19301,3825,0,3813,0,2982,0,30389,0,30758,13316,3548,0,0,0,0,0,0,0,0,0,0,0,0],"split_type":[0,0,0,0,0,0,0,0,0,0,0,0,0,0,0,0,0,0,0,0,0,0,0,0,0,0,0,0,0,0,0,0,0,0,0,0,0,0,0,0,0,0,0,0,0,0,0],"sum_hessian":[9.412801E3,1.9478401E3,7.4649604E3,1.056E1,1.9372802E3,1.06560005E2,7.3584004E3,1.2800001E0,9.280001E0,1.3760001E1,1.9235201E3,7.5840004E1,3.0720001E1,6.7520004E1,7.2908804E3,1.0880001E1,2.88E0,1.1494401E3,7.740801E2,3.2000003E0,2.7520002E1,2.9440002E1,3.808E1,7.0400004E0,7.2838403E3,4.3392004E2,3.4016003E2,2.88E0,2.4640001E1,1.8880001E1,1.92E1,2.2400002E0,4.8E0,7.776E1,7.2060806E3,2.1760002E2,1.22560005E2,2.2400002E0,2.2400002E1,1.2800001E0,1.7920002E1,1.6000001E0,3.2000003E0,8.000001E0,6.976E1,7.2028804E3,3.2000003E0],"tree_param":{"num_deleted":"0","num_feature":"30980","num_nodes":"47","size_leaf_vector":"0"}},{"base_weights":[1.0091567E-2,2.406802E0,-2.7576333E-1,2.4960067E0,1.7757593E0,2.2445006E0,-3.3882937E-1,2.4656024E0,8.4939325E-1,2.4302351E0,1.4553313E0,2.22062E0,-3.9176086E-1,2.159533E0,5.431993E-1,9.589041E-1,2.441689E0,2.2679043E0,9.5790994E-1,-1.7241378E-1,2.2927492E0,2.2490704E0,-4.0949622E-1,2.1761658E0,2.147852E-1,2.1118011E0,5.786618E-1,3.8461536E-1,-4.7619045E-1,-4.3209875E-1,2.3337514E0,3.9325842E-1,2.3341138E0,-4.2589617E-1,2.424111E0,9.9585056E-1,-3.184713E-2,1.983471E0,1.750547E-1,-4.109589E-1,2.3698246E0,5.2631575E-1,8.77193E-2,8.77193E-2,2.389912E0,1.4789288E-1,-4.691129E-1],"categories":[],"categories_nodes":[],"categories_segments":[],"categories_sizes":[],"default_left":[0,0,0,0,0,0,0,0,0,0,0,0,0,0,0,0,0,0,0,0,0,0,1,0,0,0,0,0,0,0,0,0,0,0,0,0,0,0,0,0,0,0,0,0,0,0,0],"id":3,"left_children":[1,3,5,-1,7,9,11,-1,13,15,17,19,21,-1,23,-1,-1,-1,25,27,29,31,33,-1,35,-1,37,-1,-1,-1,39,41,43,45,-1,-1,-1,-1,-1,-1,-1,-1,-1,-1,-1,-1,-1],"loss_changes":[6.450166E3,5.2041992E1,1.3377197E3,0E0,7.952484E1,2.6581665E1,1.1127278E3,0E0,2.1307781E1,4.3658447E-1,1.4658081E1,2.9124084E1,3.7756018E2,0E0,2.4609474E1,0E0,0E0,0E0,1.0838541E1,1.1645825E0,1.9067627E1,7.573059E0,3.7228162E2,0E0,7.7448606E0,0E0,1.2194626E1,0E0,0E0,0E0,1.6756226E1,9.856099E-2,6.212982E0,1.9705225E2,0E0,0E0,0E0,0E0,0E0,0E0,0E0,0E0,0E0,0E0,0E0,0E0,0E0],"parents":[2147483647,0,0,1,1,2,2,4,4,5,5,6,6,8,8,9,9,10,10,11,11,12,12,14,14,18,18,19,19,20,20,21,21,22,22,24,24,26,26,30,30,31,31,32,32,33,33],"right_children":[2,4,6,-1,8,10,12,-1,14,16,18,20,22,-1,24,-1,-1,-1,26,28,30,32,34,-1,36,-1,38,-1,-1,-1,40,42,44,46,-1,-1,-1,-1,-1,-1,-1,-1,-1,-1,-1,-1,-1],"split_conditions":[8.000001E0,1.2000001E1,2.5E0,7.4880207E-1,4.000001E0,4.000001E0,1.2000001E1,7.3968077E-1,8.000001E0,2.000001E0,2.000001E0,6.000001E0,4.000001E0,6.4785993E-1,2.5E0,2.8767124E-1,7.3250675E-1,6.803713E-1,4.000001E0,1.5E0,4.000001E0,2.000001E0,-9.536743E-7,6.528498E-1,2.000001E0,6.335404E-1,4.000001E0,1.15384616E-1,-1.4285713E-1,-1.2962963E-1,6.000001E0,2.000001E0,2.000001E0,1.5E0,7.272333E-1,2.9875517E-1,-9.554139E-3,5.9504133E-1,5.2516412E-2,-1.2328767E-1,7.109474E-1,1.5789473E-1,2.6315792E-2,2.6315792E-2,7.169736E-1,4.4367865E-2,-1.4073388E-1],"split_indices":[22210,10829,24396,0,10846,3918,9750,0,14499,15057,23476,23990,9751,0,14495,0,0,0,914,10227,18784,10537,9758,0,23476,0,4042,0,0,0,18211,19432,12374,23476,0,0,0,0,0,0,0,0,0,0,0,0,0],"split_type":[0,0,0,0,0,0,0,0,0,0,0,0,0,0,0,0,0,0,0,0,0,0,0,0,0,0,0,0,0,0,0,0,0,0,0,0,0,0,0,0,0,0,0,0,0,0,0],"sum_hessian":[9.412801E3,1.00224005E3,8.410561E3,8.755201E2,1.2672001E2,2.0448001E2,8.206081E3,7.168001E1,5.5040005E1,1.6384001E2,4.0640003E1,1.6544002E2,8.0406406E3,9.280001E0,4.5760002E1,1.9200001E0,1.6192001E2,1.4080001E1,2.6560001E1,4.8E0,1.6064001E2,5.2800003E1,7.9878403E3,6.7200003E0,3.904E1,5.4400005E0,2.112E1,1.6000001E0,3.2000003E0,2.2400002E0,1.5840001E2,2.5600002E0,5.024E1,7.9427207E3,4.5120003E1,8.64E0,3.0400002E1,3.8400002E0,1.728E1,1.9200001E0,1.5648001E2,1.2800001E0,1.2800001E0,1.2800001E0,4.8960003E1,5.5616003E2,7.3865605E3],"tree_param":{"num_deleted":"0","num_feature":"30980","num_nodes":"47","size_leaf_vector":"0"}},{"base_weights":[5.311351E-4,2.3997562E0,-3.439706E-1,2.493978E0,1.3960663E0,1.5821346E0,-4.6199334E-1,1.6844699E-1,2.4375446E0,-5.816435E-1,1.7632321E0,2.4194932E0,-4.9695012E-1,2.1468925E0,-1.6431925E-1,-0E0,-6.075808E-1,-2.4886876E-1,1.9834292E0,1.1024514E0,-5.580201E-1,1.5979381E0,-3.3232626E-1,1.6438355E0,-3.7369913E-1,-4.301075E-1,2.0968595E0,2.3105588E0,-4.9721947E-1,2.4626417E0,-5.8556366E-1,1.6438355E0,-4.7619045E-1,1.6438355E0,-5.104063E-1,-5.2941173E-1,3.8461536E-1,-4.4715446E-1,2.1941183E0,2.4380379E0,-2.0737326E-1,7.843137E-1,-5.5991805E-1,1.8807338E0,-5.9285057E-1],"categories":[],"categories_nodes":[],"categories_segments":[],"categories_sizes":[],"default_left":[0,0,0,0,1,0,0,0,0,0,0,0,0,0,0,0,0,0,0,0,0,0,0,0,0,0,0,0,0,0,0,0,0,0,0,0,0,0,0,0,0,0,0,0,0],"id":4,"left_children":[1,3,5,-1,7,9,11,13,-1,15,17,-1,19,-1,21,-1,-1,23,25,27,29,-1,31,-1,33,35,37,39,41,-1,43,-1,-1,-1,-1,-1,-1,-1,-1,-1,-1,-1,-1,-1,-1],"loss_changes":[7.781682E3,1.08311035E2,1.8722188E3,0E0,1.3219943E2,1.8737622E2,7.8265857E2,3.2401737E1,0E0,5.654335E-1,1.9503174E2,0E0,7.49391E2,0E0,1.314369E1,0E0,0E0,1.1057301E1,1.0928113E2,5.4667596E2,6.158457E2,0E0,1.2075132E1,0E0,1.2500335E1,1.7084606E0,9.4578125E1,5.218396E1,1.0264385E1,0E0,1.32646E2,0E0,0E0,0E0,0E0,0E0,0E0,0E0,0E0,0E0,0E0,0E0,0E0,0E0,0E0],"parents":[2147483647,0,0,1,1,2,2,4,4,5,5,6,6,7,7,9,9,10,10,12,12,14,14,17,17,18,18,19,19,20,20,22,22,24,24,25,25,26,26,27,27,28,28,30,30],"right_children":[2,4,6,-1,8,10,12,14,-1,16,18,-1,20,-1,22,-1,-1,24,26,28,30,-1,32,-1,34,36,38,40,42,-1,44,-1,-1,-1,-1,-1,-1,-1,-1,-1,-1,-1,-1,-1,-1],"split_conditions":[8.000001E0,1.0000001E1,1.0000001E1,7.4819344E-1,-9.536743E-7,6.000001E0,4.000001E0,2.000001E0,7.312634E-1,2.000001E0,8.000001E0,7.2584796E-1,4.000001E0,6.4406776E-1,4.000001E0,-0E0,-1.8227424E-1,4.000001E0,2.5E0,8.000001E0,6.000001E0,4.7938144E-1,2.000001E0,4.9315068E-1,4.000001E0,1.4000001E1,4.000001E0,1.8E1,2.000001E0,7.3879254E-1,1.5E0,4.9315068E-1,-1.4285713E-1,4.9315068E-1,-1.531219E-1,-1.5882352E-1,1.15384616E-1,-1.3414635E-1,6.582355E-1,7.314114E-1,-6.221198E-2,2.3529412E-1,-1.6797543E-1,5.642202E-1,-1.7785518E-1],"split_indices":[8196,10537,2982,0,10567,22210,5326,18784,0,22053,23990,0,9967,0,30040,0,0,18784,18211,19435,18587,0,18793,0,20150,30758,18215,30758,4045,0,13349,0,0,0,0,0,0,0,0,0,0,0,0,0,0],"split_type":[0,0,0,0,0,0,0,0,0,0,0,0,0,0,0,0,0,0,0,0,0,0,0,0,0,0,0,0,0,0,0,0,0,0,0,0,0,0,0,0,0,0,0,0,0],"sum_hessian":[9.412801E3,1.1811201E3,8.231681E3,1.0784E3,1.0272001E2,4.7456003E2,7.7571206E3,4.7680004E1,5.5040005E1,3.6480003E1,4.3808002E2,9.216E1,7.6649604E3,6.0800004E0,4.1600002E1,1.6000001E0,3.488E1,4.3200005E1,3.9488004E2,2.8128003E2,7.3836807E3,2.88E0,3.872E1,1.9200001E0,4.1280003E1,1.76E1,3.7728003E2,1.6000002E2,1.2128001E2,6.5920006E1,7.3177607E3,1.9200001E0,3.6800003E1,1.9200001E0,3.9360004E1,1.6000002E1,1.6000001E0,1.3760001E1,3.6352002E2,1.5232E2,7.6800003E0,5.1200004E0,1.1616001E2,2.0800001E1,7.2969604E3],"tree_param":{"num_deleted":"0","num_feature":"30980","num_nodes":"45","size_leaf_vector":"0"}},{"base_weights":[-3.944288E-2,-3.0240822E-1,1.0636659E-1,-5.839417E-1,-2.4614254E-1,-4.152283E-1,2.4354722E-1,1.071745E-1,-5.8574617E-1,-3.8484758E-1,-9.324705E-2,-5.573769E-1,-2.2025803E-1,-5.773708E-1,3.6593163E-1,7.520198E-3,-5.8752435E-1,4.6205798E-1,-4.0581298E-1,-5.761547E-1,-2.5308304E-2,-5.8781886E-1,-4.4649073E-1,-5.671316E-1,1.2541164E-1,-5.78973E-1,1.0306534E-1,-5.726601E-1,4.7168222E-1,-4.7827008E-1,5.875055E-1,-5.012962E-1,-3.1623235E-1,-5.824713E-1,1.7694487E-1,-5.7043105E-1,3.781217E-2,-5.701323E-1,-2.973952E-1,1.9512707E-1,-5.710041E-1,-5.685468E-1,7.901462E-1,-5.806259E-1,7.83499E-2,9.431524E-2,-5.7508665E-1,-5.565358E-1,5.262167E-1,-4.482793E-1,7.042676E-1,1.1534169E0,-5.098877E-1,-4.4563356E-1,-1.9370681E-1,1.750447E-1,-5.8887124E-1,4.237699E-1,-5.873661E-1,-5.6189144E-1,1.1611402E-1,-3.0702382E-1,-5.8178914E-1,-5.789099E-1,8.1303734E-1,1.9512707E-1,-5.749083E-1,4.817653E-2,-5.7616794E-1,-5.814915E-1,8.696455E-1,7.422277E-2,-5.822129E-1,1.016438E-1,-5.7744384E-1,3.10433E-1,-5.6682914E-1,1.2881432E-1,6.8659097E-1],"categories":[],"categories_nodes":[],"categories_segments":[],"categories_sizes":[],"default_left":[0,0,0,0,0,0,0,0,0,0,0,0,0,1,0,0,0,0,0,1,0,0,0,0,0,1,0,0,0,0,0,0,0,0,0,0,0,0,0,0,0,0,0,0,0,0,0,0,0,0,0,0,0,0,0,0,0,0,0,0,0,0,0,0,0,0,0,0,0,0,0,0,0,0,0,0,0,0,0],"id":5,"left_children":[1,3,5,7,9,11,13,-1,15,17,19,21,23,25,27,-1,-1,29,31,33,35,-1,37,39,41,43,-1,45,47,-1,49,51,53,55,-1,57,59,61,63,-1,65,67,69,71,-1,-1,73,75,77,-1,-1,-1,-1,-1,-1,-1,-1,-1,-1,-1,-1,-1,-1,-1,-1,-1,-1,-1,-1,-1,-1,-1,-1,-1,-1,-1,-1,-1,-1],"loss_changes":[3.432056E2,5.0431732E1,4.121281E2,7.250519E-1,5.643271E1,3.3120193E1,4.5833362E2,0E0,5.63385E-1,2.4971115E1,4.158201E1,2.0769958E0,6.0912384E1,7.050476E-1,3.9421075E2,0E0,0E0,4.3136997E0,1.1496643E1,8.4672165E-1,3.8302525E1,0E0,2.659052E0,8.5957336E-1,1.1806589E2,6.8733215E-1,0E0,7.054138E-1,2.0033807E2,0E0,4.0178633E0,9.940704E0,1.11033325E1,8.557968E-1,0E0,2.1938477E0,4.693063E1,7.529831E-2,2.2869007E1,0E0,8.672104E-1,6.167984E-1,1.475177E1,6.557617E-1,0E0,0E0,6.9841003E-1,1.7838173E0,2.158645E2,0E0,0E0,0E0,0E0,0E0,0E0,0E0,0E0,0E0,0E0,0E0,0E0,0E0,0E0,0E0,0E0,0E0,0E0,0E0,0E0,0E0,0E0,0E0,0E0,0E0,0E0,0E0,0E0,0E0,0E0],"parents":[2147483647,0,0,1,1,2,2,3,3,4,4,5,5,6,6,8,8,9,9,10,10,11,11,12,12,13,13,14,14,17,17,18,18,19,19,20,20,22,22,23,23,24,24,25,25,27,27,28,28,30,30,31,31,32,32,33,33,35,35,36,36,37,37,38,38,40,40,41,41,42,42,43,43,46,46,47,47,48,48],"right_children":[2,4,6,8,10,12,14,-1,16,18,20,22,24,26,28,-1,-1,30,32,34,36,-1,38,40,42,44,-1,46,48,-1,50,52,54,56,-1,58,60,62,64,-1,66,68,70,72,-1,-1,74,76,78,-1,-1,-1,-1,-1,-1,-1,-1,-1,-1,-1,-1,-1,-1,-1,-1,-1,-1,-1,-1,-1,-1,-1,-1,-1,-1,-1,-1,-1,-1],"split_conditions":[1.8E1,8.000001E0,8.000001E0,2.000001E0,1.6E1,6.000001E0,8.000001E0,3.215235E-2,2.000001E0,4.000001E0,1.0000001E1,1.0000001E1,8.000001E0,-9.536743E-7,6.000001E0,2.2560596E-3,-1.7625731E-1,2.000001E0,1.2000001E1,-9.536743E-7,6.000001E0,-1.7634566E-1,4.000001E0,2.000001E0,6.000001E0,-9.536743E-7,3.0919604E-2,2.000001E0,2.5E0,-1.4348103E-1,2.000001E0,2.000001E0,1.2000001E1,2.000001E0,5.308346E-2,4.000001E0,8.000001E0,1.5E0,6.000001E0,5.8538124E-2,2.000001E0,4.000001E0,4.000001E0,4.000001E0,2.3504972E-2,2.8294573E-2,2.000001E0,2.000001E0,1.2000001E1,-1.344838E-1,2.112803E-1,3.4602508E-1,-1.5296632E-1,-1.3369007E-1,-5.8112044E-2,5.2513413E-2,-1.7666137E-1,1.2713097E-1,-1.7620984E-1,-1.6856743E-1,3.4834206E-2,-9.210715E-2,-1.7453675E-1,-1.7367297E-1,2.439112E-1,5.8538124E-2,-1.724725E-1,1.4452959E-2,-1.7285039E-1,-1.7444745E-1,2.6089364E-1,2.2266833E-2,-1.7466389E-1,3.0493142E-2,-1.7323315E-1,9.31299E-2,-1.7004874E-1,3.86443E-2,2.059773E-1],"split_indices":[30758,8196,23990,337,27342,12374,22210,0,4565,23476,18211,3811,3825,5698,8196,0,0,24396,1409,24197,22210,0,3825,27128,3813,22578,0,17392,24396,0,9967,6545,13953,14368,0,29909,18215,1697,3813,0,29810,24244,18784,21561,0,0,9617,16037,1051,0,0,0,0,0,0,0,0,0,0,0,0,0,0,0,0,0,0,0,0,0,0,0,0,0,0,0,0,0,0],"split_type":[0,0,0,0,0,0,0,0,0,0,0,0,0,0,0,0,0,0,0,0,0,0,0,0,0,0,0,0,0,0,0,0,0,0,0,0,0,0,0,0,0,0,0,0,0,0,0,0,0,0,0,0,0,0,0,0,0,0,0,0,0,0,0,0,0,0,0,0,0,0,0,0,0,0,0,0,0,0,0],"sum_hessian":[8.949131E3,3.1917607E3,5.75737E3,5.3007513E2,2.6616858E3,1.1984683E3,4.558902E3,1.2283111E0,5.2884686E2,1.3948114E3,1.2668743E3,6.920505E2,5.0641785E2,5.909914E2,3.9679106E3,1.5707394E0,5.272761E2,3.318659E1,1.3616249E3,1.5532756E2,1.1115466E3,5.396089E2,1.5244162E2,2.5244897E2,2.5396886E2,5.8975183E2,1.2395345E0,4.013453E2,3.5665652E3,3.575193E0,2.9611397E1,6.568732E2,7.047516E2,1.5426027E2,1.0672853E0,1.1451676E2,9.970299E2,8.179059E1,7.0651024E1,1.0264171E0,2.5142256E2,1.2432394E2,1.2964493E2,5.88389E2,1.3628839E0,1.3175869E0,4.0002774E2,1.791718E2,3.3873933E3,2.7122295E0,2.6899166E1,2.7046676E0,6.541686E2,3.4147607E2,3.6327554E2,1.0716069E0,1.5318866E2,1.5156393E0,1.1300112E2,1.1443227E2,8.8259766E2,4.629774E0,7.716081E1,5.674405E1,1.3906978E1,1.0264171E0,2.5039615E2,1.4526246E0,1.22871315E2,6.756556E0,1.2288837E2,1.3118644E0,5.870771E2,1.242348E0,3.9878537E2,1.7601736E0,1.7741162E2,9.7447614E2,2.4129172E3],"tree_param":{"num_deleted":"0","num_feature":"30980","num_nodes":"79","size_leaf_vector":"0"}},{"base_weights":[1.6855499E-2,1.2931138E0,-1.04275085E-1,-3.633206E-1,1.2966602E0,1.2812475E0,-2.2531012E-1,-3.42431E-1,1.299913E0,-3.8827613E-1,1.2865399E0,1.2652674E0,-3.128797E-1,5.085795E-1,1.3028877E0,1.2908071E0,-4.4934213E-1,-2.5061432E-1,1.2780213E0,1.3102825E0,-3.8628423E-1,-3.5527375E-1,9.360192E-1,1.3041315E0,3.5943976E-1,-3.3295283E-1,1.2942189E0,-4.0276992E-1,7.015776E-2,-3.5630423E-1,1.2844374E0,1.3133273E0,3.6931702E-1,1.2112542E0,-4.2849097E-1,1.3053385E0,3.6875236E-1,-2.6678298E-2,1.2977723E0,-3.4330642E-1,1.2905368E0,3.699854E-1,1.3163925E0,-3.9117584E-1,1.2247106E0,2.3201332E0,-4.514806E-1],"categories":[],"categories_nodes":[],"categories_segments":[],"categories_sizes":[],"default_left":[0,0,0,0,0,0,0,0,0,0,1,0,0,0,1,0,0,0,0,1,0,0,0,1,0,0,0,0,0,0,0,0,0,0,0,0,0,0,0,0,0,0,0,0,0,0,0],"id":6,"left_children":[1,3,5,-1,7,9,11,-1,13,-1,15,17,19,21,23,25,-1,27,29,31,33,-1,-1,35,-1,-1,37,-1,-1,-1,39,41,-1,43,45,-1,-1,-1,-1,-1,-1,-1,-1,-1,-1,-1,-1],"loss_changes":[1.4065938E3,5.104126E0,1.3938593E3,0E0,4.642578E0,6.399658E0,9.980691E2,0E0,1.1872559E0,0E0,5.5126953E0,8.523804E0,8.607481E2,2.0249195E0,4.4921875E-1,4.1121826E0,0E0,2.4185166E-1,4.871582E0,4.1064453E-1,4.6632825E2,0E0,0E0,4.0039062E-1,0E0,0E0,3.1480713E0,0E0,0E0,0E0,4.607971E0,4.1278076E-1,0E0,4.3190002E0,4.263966E2,0E0,0E0,0E0,0E0,0E0,0E0,0E0,0E0,0E0,0E0,0E0,0E0],"parents":[2147483647,0,0,1,1,2,2,4,4,5,5,6,6,8,8,10,10,11,11,12,12,13,13,14,14,15,15,17,17,18,18,19,19,20,20,23,23,26,26,30,30,31,31,33,33,34,34],"right_children":[2,4,6,-1,8,10,12,-1,14,-1,16,18,20,22,24,26,-1,28,30,32,34,-1,-1,36,-1,-1,38,-1,-1,-1,40,42,-1,44,46,-1,-1,-1,-1,-1,-1,-1,-1,-1,-1,-1,-1],"split_conditions":[8.000001E0,2.000001E0,1.0000001E1,-1.0899618E-1,2.000001E0,8.000001E0,8.000001E0,-1.02729306E-1,2.000001E0,-1.1648285E-1,-9.536743E-7,2.000001E0,6.000001E0,2.000001E0,-9.536743E-7,2.000001E0,-1.3480264E-1,2.5E0,2.000001E0,-9.536743E-7,8.000001E0,-1.0658213E-1,2.8080577E-1,-9.536743E-7,1.0783193E-1,-9.988585E-2,4.000001E0,-1.2083098E-1,2.1047328E-2,-1.06891274E-1,1.0000001E1,4.000001E0,1.1079511E-1,4.000001E0,8.000001E0,3.9160156E-1,1.10625714E-1,-8.00349E-3,3.893317E-1,-1.0299193E-1,3.8716105E-1,1.1099563E-1,3.949178E-1,-1.17352754E-1,3.674132E-1,6.9604E-1,-1.3544418E-1],"split_indices":[18215,18784,18211,0,18793,14499,4859,0,10829,0,29046,3811,13988,22210,6921,18784,0,13316,3825,1487,13978,0,0,13687,0,0,3811,0,0,0,14499,5791,0,14495,4865,0,0,0,0,0,0,0,0,0,0,0,0],"split_type":[0,0,0,0,0,0,0,0,0,0,0,0,0,0,0,0,0,0,0,0,0,0,0,0,0,0,0,0,0,0,0,0,0,0,0,0,0,0,0,0,0,0,0,0,0,0,0],"sum_hessian":[9.096763E3,7.877007E2,8.3090625E3,1.4660735E0,7.862346E2,6.6676996E2,7.642292E3,1.350748E0,7.8488385E2,1.8782914E0,6.6489166E2,4.233159E2,7.2189766E3,3.5833406E0,7.8130054E2,6.6351697E2,1.3747237E0,3.3762784E0,4.199396E2,3.116109E2,6.907365E3,1.2420328E0,2.341308E0,7.798901E2,1.4104441E0,1.1886655E0,6.623283E2,2.1166406E0,1.2596378E0,1.4289049E0,4.185107E2,3.1021136E2,1.3995444E0,1.7708125E2,6.730284E3,7.7849E2,1.4000893E0,1.759518E0,6.605688E2,1.3559555E0,4.1715475E2,1.3988899E0,3.0881247E2,1.240894E0,1.7584036E2,5.4996735E1,6.6752876E3],"tree_param":{"num_deleted":"0","num_feature":"30980","num_nodes":"47","size_leaf_vector":"0"}},{"base_weights":[1.688152E-2,1.2309266E0,-5.199302E-1,-4.1992697E-1,1.2360286E0,1.1629996E0,-5.586651E-1,1.6065101E-1,-5.1619184E-1,-5.3737648E-2,1.2418106E0,1.3944956E0,3.8881162E-1,1.1177189E0,-5.829251E-1,-5.2953166E-1,9.611354E-1,-4.965173E-1,1.2443128E0,1.3035955E0,2.1450949E-1,1.3826156E0,8.493276E-1,4.5716575E-1,-5.8430535E-1,1.0838581E-1,1.207347E0,1.3086394E0,1.1783226E0,1.1214606E0,4.182242E-2,1.373051E0,6.709687E-2,-3.9198574E-1,7.554563E-1,-3.3375418E-1,-5.8736813E-1,3.535708E-1,1.3093557E0,1.3028884E0,9.9202406E-1,8.933985E-1,-1.2163253E-1,5.273885E-1,-1.13641046E-1,-3.4942377E-1,1.0343723E0,2.4486284E-1,-4.1240314E-1,4.0067352E-2,-5.876935E-1],"categories":[],"categories_nodes":[],"categories_segments":[],"categories_sizes":[],"default_left":[0,0,0,0,0,0,0,0,0,0,0,0,0,0,0,0,0,0,0,0,0,0,0,0,0,0,0,0,0,0,0,0,0,0,0,0,0,0,0,0,0,0,0,0,0,0,0,0,0,0,0],"id":7,"left_children":[1,3,5,7,9,11,13,-1,-1,15,17,-1,19,21,23,-1,25,-1,27,-1,29,-1,31,33,35,-1,-1,37,39,-1,41,-1,43,-1,45,47,49,-1,-1,-1,-1,-1,-1,-1,-1,-1,-1,-1,-1,-1,-1],"loss_changes":[5.950515E3,2.4097656E1,4.1336597E2,6.0668314E-1,2.0880371E1,2.504454E1,2.5236853E2,0E0,0E0,6.9866433E0,1.2703613E1,0E0,5.1814227E0,5.1273346E0,9.0271E0,0E0,8.427205E-1,0E0,1.0237305E1,0E0,4.646193E0,0E0,1.900684E1,2.4865332E0,4.4804688E0,0E0,0E0,4.921875E-1,3.0727661E1,0E0,3.757082E0,0E0,1.7027535E0,0E0,2.4388728E0,3.5555563E0,1.2524414E0,0E0,0E0,0E0,0E0,0E0,0E0,0E0,0E0,0E0,0E0,0E0,0E0,0E0,0E0],"parents":[2147483647,0,0,1,1,2,2,3,3,4,4,5,5,6,6,9,9,10,10,12,12,13,13,14,14,16,16,18,18,20,20,22,22,23,23,24,24,27,27,28,28,30,30,32,32,34,34,35,35,36,36],"right_children":[2,4,6,8,10,12,14,-1,-1,16,18,-1,20,22,24,-1,26,-1,28,-1,30,-1,32,34,36,-1,-1,38,40,-1,42,-1,44,-1,46,48,50,-1,-1,-1,-1,-1,-1,-1,-1,-1,-1,-1,-1,-1,-1],"split_conditions":[8.000001E0,4.000001E0,8.000001E0,2.000001E0,2.5E0,4.000001E0,8.000001E0,4.8195306E-2,-1.5485756E-1,1.2000001E1,4.000001E0,4.183487E-1,4.000001E0,4.000001E0,4.000001E0,-1.588595E-1,2.000001E0,-1.489552E-1,1.0000001E1,3.9107868E-1,1.5E0,4.147847E-1,4.000001E0,3E0,2.5E0,3.2515746E-2,3.6220413E-1,2.000001E0,8.000001E0,3.3643818E-1,2.000001E0,4.1191533E-1,1.5E0,-1.17595725E-1,2.000001E0,8.000001E0,2.000001E0,1.0607124E-1,3.9280674E-1,3.9086655E-1,2.9760724E-1,2.6801956E-1,-3.6489762E-2,1.5821657E-1,-3.4092315E-2,-1.04827136E-1,3.103117E-1,7.345886E-2,-1.23720944E-1,1.2020206E-2,-1.7630807E-1],"split_indices":[23990,18784,3811,2468,22210,12374,23998,0,0,10829,18793,0,23998,3825,3813,0,1409,0,3811,0,18266,0,3813,19301,3825,0,0,8021,3825,0,27334,0,1051,0,21415,13316,420,0,0,0,0,0,0,0,0,0,0,0,0,0,0],"split_type":[0,0,0,0,0,0,0,0,0,0,0,0,0,0,0,0,0,0,0,0,0,0,0,0,0,0,0,0,0,0,0,0,0,0,0,0,0,0,0,0,0,0,0,0,0,0,0,0,0,0,0],"sum_hessian":[9.128585E3,2.7984226E3,6.3301626E3,8.371325E0,2.7900513E3,1.4176613E2,6.1883965E3,1.0954959E0,7.275829E0,1.2414967E1,2.7776362E3,1.0851654E2,3.324959E1,8.763571E1,6.1007607E3,8.77792E0,3.6370466E0,3.7086673E0,2.7739277E3,4.284493E0,2.89651E1,4.2015648E1,4.5620068E1,7.6476827E0,6.093113E3,1.1375113E0,2.4995353E0,1.3951339E3,1.3787937E3,3.7541506E0,2.5210949E1,2.6872763E1,1.8747303E1,1.9064461E0,5.7412367E0,7.4912E1,6.0182007E3,1.4162982E0,1.3937177E3,8.227079E2,5.560859E2,3.3406968E0,2.1870253E1,4.74502E0,1.4002283E1,1.1062431E0,4.634993E0,8.711142E0,6.620087E1,3.056026E0,6.015145E3],"tree_param":{"num_deleted":"0","num_feature":"30980","num_nodes":"51","size_leaf_vector":"0"}},{"base_weights":[1.1706648E-2,1.269465E0,-2.3068736E-1,-1.8397285E-1,1.2742887E0,1.3007157E0,-2.9044327E-1,2.5269282E-1,-4.5161387E-1,-4.3933868E-1,1.2772113E0,-4.7017598E-1,1.3195674E0,1.2620987E0,-3.414386E-1,1.5422511E-2,1.2809558E0,1.3346403E0,-4.2608693E-1,1.3870041E0,8.5464686E-1,1.2882522E0,-3.5885426E-1,7.632123E-1,-4.5172948E-1,-4.146918E-1,1.2834964E0,-3.6982146E-1,1.3441482E0,1.3608468E0,4.163461E-1,1.3936274E0,7.3012316E-1,-3.7512118E-1,1.3687673E0,-1.8253416E-2,1.2863895E0,1.3513845E0,-3.2151076E-1,1.2030923E0,3.0874796E-2,-3.8639444E-1,9.057148E-1,8.4458363E-1,-3.9466557E-1,3.998296E-1,1.383162E0],"categories":[],"categories_nodes":[],"categories_segments":[],"categories_sizes":[],"default_left":[0,0,0,0,0,0,0,0,0,0,0,0,1,0,0,0,0,0,0,0,0,0,1,0,0,0,0,0,1,0,0,0,0,0,0,0,0,0,0,0,0,0,0,0,0,0,0],"id":8,"left_children":[1,3,5,7,9,11,13,-1,-1,-1,15,-1,17,19,21,23,25,27,-1,-1,29,31,33,-1,-1,-1,35,-1,37,-1,39,-1,41,43,45,-1,-1,-1,-1,-1,-1,-1,-1,-1,-1,-1,-1],"loss_changes":[2.7642195E3,1.0505615E1,6.9602313E2,7.8259885E-1,7.874756E0,1.0157288E1,5.7974725E2,0E0,0E0,0E0,6.8691406E0,0E0,8.01297E0,1.0668152E1,2.0155695E2,2.2054036E0,6.7946777E0,5.046753E0,0E0,0E0,1.2135952E1,3.4013138E0,1.97547E2,0E0,0E0,0E0,5.491211E0,0E0,3.8022156E0,0E0,9.705373E0,0E0,3.1011176E0,1.6592645E2,3.6213684E-1,0E0,0E0,0E0,0E0,0E0,0E0,0E0,0E0,0E0,0E0,0E0,0E0],"parents":[2147483647,0,0,1,1,2,2,3,3,4,4,5,5,6,6,10,10,12,12,13,13,14,14,15,15,16,16,17,17,20,20,21,21,22,22,26,26,28,28,30,30,32,32,33,33,34,34],"right_children":[2,4,6,8,10,12,14,-1,-1,-1,16,-1,18,20,22,24,26,28,-1,-1,30,32,34,-1,-1,-1,36,-1,38,-1,40,-1,42,44,46,-1,-1,-1,-1,-1,-1,-1,-1,-1,-1,-1,-1],"split_conditions":[8.000001E0,1.5E0,2.5E0,2.000001E0,4.000001E0,4.000001E0,1.2000001E1,7.580785E-2,-1.3548417E-1,-1.318016E-1,2.000001E0,-1.410528E-1,-9.536743E-7,6.000001E0,4.000001E0,4.000001E0,2.000001E0,2.000001E0,-1.2782608E-1,4.1610125E-1,4.000001E0,6.000001E0,-9.536743E-7,2.289637E-1,-1.3551885E-1,-1.24407545E-1,2.000001E0,-1.1094644E-1,-9.536743E-7,4.0825406E-1,2.000001E0,4.1808823E-1,2.000001E0,2.5E0,2.000001E0,-5.476025E-3,3.8591686E-1,4.054154E-1,-9.6453235E-2,3.609277E-1,9.262439E-3,-1.1591834E-1,2.7171445E-1,2.533751E-1,-1.1839967E-1,1.1994889E-1,4.149486E-1],"split_indices":[22210,13070,24396,10227,18784,17774,9750,0,0,0,13072,0,2828,4042,9751,14499,22021,18215,0,0,4056,4042,9758,0,0,0,13988,0,18174,0,23476,0,10537,14816,16670,0,0,0,0,0,0,0,0,0,0,0,0],"split_type":[0,0,0,0,0,0,0,0,0,0,0,0,0,0,0,0,0,0,0,0,0,0,0,0,0,0,0,0,0,0,0,0,0,0,0,0,0,0,0,0,0,0,0,0,0,0,0],"sum_hessian":[9.064827E3,1.4640066E3,7.600821E3,4.719871E0,1.4592867E3,2.8466858E2,7.3161523E3,1.8148052E0,2.905066E0,2.23039E0,1.4570563E3,2.746309E0,2.8192227E2,2.3191132E2,7.0842407E3,4.3262825E0,1.45273E3,2.7974228E2,2.1799843E0,1.7565858E2,5.625273E1,7.4133705E1,7.010107E3,1.4197972E0,2.906485E0,1.9307082E0,1.4507993E3,1.3415861E0,2.784007E2,2.5127636E1,3.1125095E1,6.110087E1,1.3032837E1,6.9454927E3,6.461439E1,3.2054749E0,1.4475939E3,2.7738428E2,1.0163972E0,9.537658E0,2.1587437E1,1.607956E0,1.1424881E1,1.0887265E2,6.83662E3,1.3671238E0,6.324727E1],"tree_param":{"num_deleted":"0","num_feature":"30980","num_nodes":"47","size_leaf_vector":"0"}},{"base_weights":[-6.6848397E-3,1.2746425E0,-3.067998E-1,1.3065764E0,8.7219924E-1,9.602169E-1,-4.2236882E-1,3.504166E-1,1.3072095E0,1.4076683E-1,1.2964299E0,-5.19012E-1,1.0405164E0,7.425749E-1,-4.8356095E-1,1.3078333E0,5.111548E-1,1.2497461E0,-1.3361467E-1,3.9329863E-1,1.3069092E0,-5.74007E-1,1.7841883E-1,-5.374178E-1,1.1246235E0,1.264421E0,-3.850677E-1,1.3151776E0,-5.2108437E-1,1.0860238E0,-2.9283276E-1,8.255015E-2,-6.0500425E-1,1.1991232E-1,-5.687703E-1,-6.418857E-1,1.164284E0,1.313096E0,-1.9981214E-1,1.325074E0,-4.9329594E-1,3.813131E-1,1.3222314E0,1.3844255E0,-5.505152E-1,1.1128484E0,-4.3688178E-1,-4.239055E-1,1.2051198E0,1.3209898E0,5.46194E-2,-3.8666347E-1,3.4151894E-1,7.166568E-1,-5.39613E-1,4.0235487E-1,1.3288364E0,2.4032605E0,-5.5592823E-1],"categories":[],"categories_nodes":[],"categories_segments":[],"categories_sizes":[],"default_left":[0,0,0,0,1,0,0,0,1,0,0,1,0,0,0,0,0,0,0,0,0,0,0,0,0,0,0,0,0,0,0,0,0,0,0,0,0,0,0,0,0,0,0,0,0,0,0,0,0,0,0,0,0,0,0,0,0,0,0],"id":9,"left_children":[1,3,5,7,9,11,13,-1,15,17,19,21,23,25,27,-1,-1,-1,29,-1,-1,31,-1,33,35,37,39,41,43,-1,45,-1,-1,-1,-1,-1,47,49,51,-1,53,-1,55,-1,57,-1,-1,-1,-1,-1,-1,-1,-1,-1,-1,-1,-1,-1,-1],"loss_changes":[3.4852598E3,2.0964844E1,1.0756741E3,5.053711E-1,3.998668E1,7.348694E1,4.8012415E2,0E0,1.2109375E-1,1.4968244E1,2.602539E-1,1.3408422E0,7.795624E1,1.9837001E2,4.3231006E2,0E0,0E0,0E0,8.065826E0,0E0,0E0,6.6385555E-1,0E0,6.8999577E-1,3.9537476E1,1.6663483E1,2.0486206E1,3.5849E-1,3.5210547E2,0E0,7.791689E0,0E0,0E0,0E0,0E0,0E0,3.5653687E1,2.141693E0,9.687198E-1,0E0,6.0751743E0,0E0,2.526245E-1,0E0,9.999475E1,0E0,0E0,0E0,0E0,0E0,0E0,0E0,0E0,0E0,0E0,0E0,0E0,0E0,0E0],"parents":[2147483647,0,0,1,1,2,2,3,3,4,4,5,5,6,6,8,8,9,9,10,10,11,11,12,12,13,13,14,14,18,18,21,21,23,23,24,24,25,25,26,26,27,27,28,28,30,30,36,36,37,37,38,38,40,40,42,42,44,44],"right_children":[2,4,6,8,10,12,14,-1,16,18,20,22,24,26,28,-1,-1,-1,30,-1,-1,32,-1,34,36,38,40,42,44,-1,46,-1,-1,-1,-1,-1,48,50,52,-1,54,-1,56,-1,58,-1,-1,-1,-1,-1,-1,-1,-1,-1,-1,-1,-1,-1,-1],"split_conditions":[8.000001E0,1.0000001E1,1.0000001E1,2.000001E0,-9.536743E-7,8.000001E0,4.000001E0,1.0512499E-1,-9.536743E-7,2.000001E0,2.000001E0,1.5E0,6.000001E0,8.000001E0,4.000001E0,3.9235002E-1,1.5334643E-1,3.7492383E-1,4.000001E0,1.1798959E-1,3.9207277E-1,2.000001E0,5.3525653E-2,2.000001E0,4.000001E0,1.2000001E1,4.000001E0,2.000001E0,6.000001E0,3.2580715E-1,2.000001E0,2.4765046E-2,-1.8150128E-1,3.5973698E-2,-1.706311E-1,-1.9256572E-1,4.000001E0,1.8E1,1.0000001E1,3.975222E-1,6.000001E0,1.1439393E-1,2.000001E0,4.1532767E-1,4.000001E0,3.3385453E-1,-1.3106453E-1,-1.2717165E-1,3.6153597E-1,3.9629698E-1,1.6385822E-2,-1.1599904E-1,1.0245568E-1,2.1499705E-1,-1.618839E-1,1.2070646E-1,3.9865094E-1,7.2097814E-1,-1.6677848E-1],"split_indices":[8196,10537,2982,5004,10567,3811,9967,0,11682,18784,876,30758,22210,19435,5326,0,0,0,30040,0,0,19010,0,22053,4859,1409,22053,6715,18587,0,18793,0,0,0,0,0,13070,30758,27342,0,30040,0,12755,0,18590,0,0,0,0,0,0,0,0,0,0,0,0,0,0],"split_type":[0,0,0,0,0,0,0,0,0,0,0,0,0,0,0,0,0,0,0,0,0,0,0,0,0,0,0,0,0,0,0,0,0,0,0,0,0,0,0,0,0,0,0,0,0,0,0,0,0,0,0,0,0,0,0,0,0,0,0],"sum_hessian":[9.061306E3,1.7189745E3,7.342331E3,1.5905201E3,1.2845433E2,6.131275E2,6.7292036E3,1.4193637E0,1.5891007E3,4.7643013E1,8.0811325E1,3.1288403E1,5.818391E2,3.3527518E2,6.393928E3,1.587214E3,1.8867232E0,8.744643E0,3.889837E1,1.3688775E0,7.944245E1,2.916556E1,2.1228437E0,2.917105E1,5.52668E2,2.2912178E2,1.06153404E2,1.2996214E2,6.2639663E3,3.819482E0,3.5078884E1,1.2399001E0,2.792566E1,1.1994286E0,2.797162E1,1.1802231E1,5.4086584E2,2.2185011E2,7.271674E0,5.6489873E0,1.0050442E2,1.3870587E0,1.2857509E2,9.457571E1,6.1693906E3,2.6354783E0,3.244341E1,1.3323087E1,5.275427E2,2.2041786E2,1.43225E0,5.6181674E0,1.6535066E0,3.171874E0,9.733254E1,1.3580319E0,1.2721705E2,1.0475021E1,6.1589155E3],"tree_param":{"num_deleted":"0","num_feature":"30980","num_nodes":"59","size_leaf_vector":"0"}},{"base_weights":[-2.7033802E-2,-5.2489257E-1,2.9632322E-2,-5.732721E-1,-3.6419395E-1,-5.539536E-1,9.368842E-2,-5.471035E-1,-1.8011901E-1,1.6619334E-1,-5.552464E-1,-5.541933E-1,1.6289485E-1,1.5951765E-1,-5.5614364E-1,-5.632856E-1,4.1778553E-1,1.1229566E-1,-5.564694E-1,-1.8974163E-1,-5.61165E-1,-1.2767874E-1,3.0062923E-1,-2.2164117E-1,7.21979E-1,4.706815E-2,-5.577655E-1,-4.8584676E-1,4.210586E-2,1.4378998E-1,-5.626616E-1,-5.5609655E-1,-5.1703945E-2,3.7701994E-1,-1.5305755E-1,-5.4389113E-1,2.3883359E-1,-8.0283135E-2,9.9727494E-1,3.8391452E-2,-5.590148E-1,6.210078E-1,-1.248012E-1,-5.641117E-1,6.262049E-2,9.893113E-2,-5.59363E-1,-5.527768E-1,3.5654336E-2,-5.1930714E-1,4.13639E-1,-3.6304948E-1,2.2954568E-2],"categories":[],"categories_nodes":[],"categories_segments":[],"categories_sizes":[],"default_left":[0,0,0,0,0,0,0,0,0,0,0,0,0,0,0,0,0,0,0,0,0,0,1,0,0,0,0,0,0,0,1,0,0,0,0,0,0,0,0,0,0,0,0,0,0,0,0,0,0,0,0,0,0],"id":10,"left_children":[1,3,5,-1,7,9,11,13,15,-1,17,19,21,-1,-1,-1,23,-1,25,27,29,31,33,35,37,-1,39,-1,41,-1,43,45,47,49,51,-1,-1,-1,-1,-1,-1,-1,-1,-1,-1,-1,-1,-1,-1,-1,-1,-1,-1],"loss_changes":[2.3911397E2,6.5248566E0,2.8453168E2,0E0,6.741543E0,7.931824E-1,3.0759537E2,7.3651505E-1,2.3774248E1,0E0,6.76178E-1,1.5758209E0,2.4805797E2,0E0,0E0,0E0,8.077091E0,0E0,6.13327E-1,9.773689E-1,7.658386E-1,6.485914E1,1.4577628E2,2.1904752E0,6.223568E0,0E0,5.792999E-1,0E0,9.2177993E-1,0E0,6.228943E-1,6.9760895E-1,7.418711E1,1.1834027E2,2.2430328E1,0E0,0E0,0E0,0E0,0E0,0E0,0E0,0E0,0E0,0E0,0E0,0E0,0E0,0E0,0E0,0E0,0E0,0E0],"parents":[2147483647,0,0,1,1,2,2,4,4,5,5,6,6,7,7,8,8,10,10,11,11,12,12,16,16,18,18,19,19,20,20,21,21,22,22,23,23,24,24,26,26,28,28,30,30,31,31,32,32,33,33,34,34],"right_children":[2,4,6,-1,8,10,12,14,16,-1,18,20,22,-1,-1,-1,24,-1,26,28,30,32,34,36,38,-1,40,-1,42,-1,44,46,48,50,52,-1,-1,-1,-1,-1,-1,-1,-1,-1,-1,-1,-1,-1,-1,-1,-1,-1,-1],"split_conditions":[6.000001E0,1.0000001E1,8.000001E0,-1.7198163E-1,4.000001E0,2.000001E0,8.000001E0,1.5E0,6.000001E0,4.9858004E-2,2.000001E0,1.5E0,1.8E1,4.7855295E-2,-1.668431E-1,-1.6898568E-1,6.000001E0,3.3688698E-2,2.000001E0,4.000001E0,2.000001E0,1.0000001E1,1.5E0,1.2000001E1,8.000001E0,1.4120446E-2,2.000001E0,-1.4575404E-1,2.000001E0,4.3136995E-2,-9.536743E-7,1.5E0,8.000001E0,2.5E0,1.0000001E1,-1.6316734E-1,7.165008E-2,-2.4084942E-2,2.991825E-1,1.1517436E-2,-1.6770445E-1,1.8630235E-1,-3.7440363E-2,-1.6923352E-1,1.8786147E-2,2.967934E-2,-1.678089E-1,-1.6583306E-1,1.0696301E-2,-1.5579215E-1,1.2409171E-1,-1.08914845E-1,6.886371E-3],"split_indices":[12374,3811,8196,0,3825,26552,22210,17808,3813,0,337,23476,30758,0,0,0,1051,0,21977,10829,27079,18211,27342,27342,19301,0,13029,0,13316,0,5698,6674,18215,24396,1051,0,0,0,0,0,0,0,0,0,0,0,0,0,0,0,0,0,0],"split_type":[0,0,0,0,0,0,0,0,0,0,0,0,0,0,0,0,0,0,0,0,0,0,0,0,0,0,0,0,0,0,0,0,0,0,0,0,0,0,0,0,0,0,0,0,0,0,0,0,0,0,0,0,0],"sum_hessian":[8.474143E3,8.6511646E2,7.6090264E3,6.6296E2,2.0215646E2,7.5182684E2,6.8571997E3,1.0040998E2,1.0174648E2,1.1187141E0,7.507081E2,6.611144E2,6.1960854E3,1.0580924E0,9.935188E1,6.204372E1,3.970276E1,1.2067211E0,7.495014E2,1.2938745E1,6.481756E2,1.9925476E3,4.2035376E3,1.2886407E1,2.6816353E1,1.5304685E0,7.4797095E2,5.200876E0,7.7378683E0,1.1717752E0,6.4700385E2,2.991782E2,1.6933694E3,3.5979004E3,6.056372E2,7.474466E0,5.4119415E0,7.032052E0,1.9784302E1,1.5019866E0,7.4646893E2,1.1228132E0,6.615055E0,6.4560443E2,1.399385E0,1.3392056E0,2.97839E2,2.5060608E2,1.4427633E3,1.4070372E2,3.4571968E3,2.75677E2,3.2996017E2],"tree_param":{"num_deleted":"0","num_feature":"30980","num_nodes":"53","size_leaf_vector":"0"}},{"base_weights":[1.6356932E-2,9.6255946E-1,-8.871458E-2,-3.303857E-1,9.6491146E-1,9.481696E-1,-1.9664533E-1,-3.0736807E-1,9.6701765E-1,9.513751E-1,-4.325977E-1,9.6184003E-1,-2.7814412E-1,3.2511562E-1,9.6920663E-1,-3.525524E-1,9.5478326E-1,-2.0812844E-1,9.7007036E-1,9.807123E-1,-3.4755626E-1,-3.548882E-1,7.6214325E-1,9.7103167E-1,2.858724E-1,-3.299305E-1,9.571443E-1,-3.7090147E-1,1.0101441E-1,-3.293802E-1,9.744745E-1,4.7695E-1,9.873668E-1,1.8226182E0,-3.7678394E-1,2.0872748E-1,9.721528E-1,4.4966918E-1,1.1167121E-3,-3.0591828E-1,9.5945746E-1,-3.0956912E-1,9.785089E-1,-3.7985715E-1,7.550557E-1,9.9024266E-1,2.1357043E-1,1.0371331E0,2.1296883E0,1.316157E0,-4.1247252E-1],"categories":[],"categories_nodes":[],"categories_segments":[],"categories_sizes":[],"default_left":[0,0,0,0,0,1,0,0,0,0,0,0,0,0,1,0,0,1,0,0,0,0,0,0,0,0,0,0,0,0,0,0,1,0,0,0,0,0,0,0,0,0,0,0,0,0,0,0,0,0,0],"id":11,"left_children":[1,3,5,-1,7,9,11,-1,13,15,-1,17,19,21,23,-1,25,27,29,31,33,-1,-1,35,37,-1,39,-1,-1,-1,41,43,45,47,49,-1,-1,-1,-1,-1,-1,-1,-1,-1,-1,-1,-1,-1,-1,-1,-1],"loss_changes":[8.3527057E2,2.8723755E0,8.464585E2,0E0,2.5440063E0,3.56781E0,6.469986E2,0E0,8.6138916E-1,3.4996338E0,0E0,4.539276E0,5.596097E2,1.5633144E0,7.6239014E-1,0E0,2.4699707E0,2.3723075E-1,2.8818054E0,6.512146E-1,3.8549225E2,0E0,0E0,5.076294E-1,1.692059E-1,0E0,2.3652344E0,0E0,0E0,0E0,2.6144104E0,1.7876352E0,5.2160645E-1,1.7277985E1,3.6226367E2,0E0,0E0,0E0,0E0,0E0,0E0,0E0,0E0,0E0,0E0,0E0,0E0,0E0,0E0,0E0,0E0],"parents":[2147483647,0,0,1,1,2,2,4,4,5,5,6,6,8,8,9,9,11,11,12,12,13,13,14,14,16,16,17,17,18,18,19,19,20,20,23,23,24,24,26,26,30,30,31,31,32,32,33,33,34,34],"right_children":[2,4,6,-1,8,10,12,-1,14,16,-1,18,20,22,24,-1,26,28,30,32,34,-1,-1,36,38,-1,40,-1,-1,-1,42,44,46,48,50,-1,-1,-1,-1,-1,-1,-1,-1,-1,-1,-1,-1,-1,-1,-1,-1],"split_conditions":[8.000001E0,2.000001E0,1.0000001E1,-9.911572E-2,2.000001E0,-9.536743E-7,8.000001E0,-9.221043E-2,8.000001E0,8.000001E0,-1.2977931E-1,2.000001E0,6.000001E0,2.000001E0,-9.536743E-7,-1.0576573E-1,1.5E0,1.5E0,2.000001E0,1.5E0,1.4000001E1,-1.06466465E-1,2.2864299E-1,2E0,1.5E0,-9.897916E-2,2.000001E0,-1.1127044E-1,3.0304326E-2,-9.881407E-2,1.0000001E1,1.5E0,-9.536743E-7,8.000001E0,4.000001E0,6.261825E-2,2.9164585E-1,1.3490076E-1,3.3501364E-4,-9.1775484E-2,2.8783724E-1,-9.287074E-2,2.9355267E-1,-1.1395715E-1,2.2651672E-1,2.970728E-1,6.4071134E-2,3.1113994E-1,6.389065E-1,3.9484712E-1,-1.2374176E-1],"split_indices":[18215,18784,18211,0,18793,29046,4859,0,14499,14499,0,3811,13988,22210,11847,0,12635,1051,3825,23476,22021,0,0,4424,13953,0,18784,0,0,0,14499,13316,21141,13978,12869,0,0,0,0,0,0,0,0,0,0,0,0,0,0,0,0],"split_type":[0,0,0,0,0,0,0,0,0,0,0,0,0,0,0,0,0,0,0,0,0,0,0,0,0,0,0,0,0,0,0,0,0,0,0,0,0,0,0,0,0,0,0,0,0,0,0,0,0,0,0],"sum_hessian":[8.399667E3,8.3870447E2,7.5609624E3,1.269676E0,8.3743475E2,7.120977E2,6.8488647E3,1.1445179E0,8.362902E2,7.1075867E2,1.3390847E0,4.4943628E2,6.399428E3,3.350349E0,8.329399E2,1.5858173E0,7.0917285E2,2.9698703E0,4.464664E2,3.3373276E2,6.065696E3,1.384325E0,1.9660239E0,8.303014E2,2.638519E0,1.0464485E0,7.081264E2,1.8146361E0,1.1552342E0,1.2588234E0,4.4520758E2,5.2984867E0,3.2843427E2,7.979116E1,5.9859043E3,1.4942945E0,8.2880707E2,1.3073606E0,1.3311584E0,1.0545194E0,7.070719E2,1.1572375E0,4.4405035E2,1.2087165E0,4.0897703E0,3.2693945E2,1.4948089E0,2.365617E1,5.6134987E1,1.2284179E2,5.8630625E3],"tree_param":{"num_deleted":"0","num_feature":"30980","num_nodes":"51","size_leaf_vector":"0"}},{"base_weights":[8.135918E-3,9.1491306E-1,-4.9515018E-1,-3.8172638E-1,9.1815996E-1,8.824986E-1,-5.3576547E-1,1.9083622E-1,-4.8966703E-1,1.9061936E-2,9.214067E-1,1.0492617E0,3.048557E-1,8.646752E-1,-5.615634E-1,-4.9180987E-1,8.35778E-1,9.6417105E-1,8.545628E-1,7.0985365E-1,5.299046E-2,-3.6439365E-1,8.8772917E-1,3.6907354E-1,-5.630952E-1,1.3820568E-1,9.970746E-1,9.6470624E-1,1.9426435E-1,9.7009987E-1,6.9102323E-1,1.5935436E-1,8.0044055E-1,7.058514E-1,-1.1372968E-1,-3.3620408E-1,9.0887785E-1,-3.785903E-1,5.701695E-1,-3.1452516E-1,-5.665658E-1,1.9641443E-1,9.652391E-1,1.8932061E-1,9.715495E-1,1.0123273E0,-6.935815E-2,1.8761631E-2,9.0365916E-1,-3.3268428E-1,1.0761361E0,9.751421E-1,-2.4405217E-1,1.0492859E0,7.472215E-1,-3.9394274E-1,8.216686E-1,8.8883215E-1,-3.5097778E-1,-5.6694394E-1,9.887582E-2],"categories":[],"categories_nodes":[],"categories_segments":[],"categories_sizes":[],"default_left":[0,0,0,0,0,0,0,0,0,0,0,0,0,0,0,0,0,1,0,0,0,0,0,0,0,0,0,0,0,0,0,0,0,0,0,0,0,0,0,0,1,0,0,0,0,0,0,0,0,0,0,0,0,0,0,0,0,0,0,0,0],"id":12,"left_children":[1,3,5,7,9,11,13,-1,-1,15,17,-1,19,21,23,-1,25,27,29,31,33,-1,35,37,39,-1,-1,41,-1,43,45,-1,47,49,51,-1,53,-1,55,57,59,-1,-1,-1,-1,-1,-1,-1,-1,-1,-1,-1,-1,-1,-1,-1,-1,-1,-1,-1,-1],"loss_changes":[3.8019482E3,1.28688965E1,3.0023804E2,5.961226E-1,8.641846E0,1.4495522E1,1.8851965E2,0E0,0E0,5.290421E0,7.624756E0,0E0,3.6206732E0,3.0021286E0,7.4940186E0,0E0,4.1022277E-1,5.522461E-1,2.1284912E1,5.541825E-1,2.6047213E0,0E0,2.7150345E0,1.5695033E0,4.224243E0,0E0,0E0,5.444336E-1,0E0,5.839844E-1,1.18446915E2,0E0,9.1014814E-1,2.2256825E0,2.9818928E0,0E0,1.2990341E0,0E0,2.140763E0,3.4929266E0,1.3220215E0,0E0,0E0,0E0,0E0,0E0,0E0,0E0,0E0,0E0,0E0,0E0,0E0,0E0,0E0,0E0,0E0,0E0,0E0,0E0,0E0],"parents":[2147483647,0,0,1,1,2,2,3,3,4,4,5,5,6,6,9,9,10,10,12,12,13,13,14,14,16,16,17,17,18,18,19,19,20,20,22,22,23,23,24,24,27,27,29,29,30,30,32,32,33,33,34,34,36,36,38,38,39,39,40,40],"right_children":[2,4,6,8,10,12,14,-1,-1,16,18,-1,20,22,24,-1,26,28,30,32,34,-1,36,38,40,-1,-1,42,-1,44,46,-1,48,50,52,-1,54,-1,56,58,60,-1,-1,-1,-1,-1,-1,-1,-1,-1,-1,-1,-1,-1,-1,-1,-1,-1,-1,-1,-1],"split_conditions":[8.000001E0,4.000001E0,8.000001E0,2.000001E0,2.5E0,4.000001E0,8.000001E0,5.725087E-2,-1.4690012E-1,1.2000001E1,6.000001E0,3.147785E-1,6.000001E0,2.000001E0,4.000001E0,-1.4754297E-1,2.000001E0,-9.536743E-7,8.000001E0,1.5E0,1.5E0,-1.093181E-1,2.000001E0,4.000001E0,2.5E0,4.1461706E-2,2.991224E-1,2.000001E0,5.827931E-2,2.000001E0,6.000001E0,4.780631E-2,6.000001E0,1.5E0,2.000001E0,-1.0086123E-1,4.000001E0,-1.1357709E-1,2.000001E0,2.000001E0,-9.536743E-7,5.892433E-2,2.8957173E-1,5.6796186E-2,2.9146487E-1,3.036982E-1,-2.0807445E-2,5.6284894E-3,2.7109775E-1,-9.980529E-2,3.2284084E-1,2.9254264E-1,-7.3215656E-2,3.1478578E-1,2.2416647E-1,-1.1818283E-1,2.465006E-1,2.6664966E-1,-1.0529334E-1,-1.700832E-1,2.9662747E-2],"split_indices":[23990,18784,3811,28450,22210,12374,23998,0,0,10829,12374,0,1051,23476,3813,0,1409,6892,3825,19000,27342,0,22068,10227,3825,0,0,18641,0,9670,3813,0,27433,1409,2510,0,3825,0,29999,19347,3548,0,0,0,0,0,0,0,0,0,0,0,0,0,0,0,0,0,0,0,0],"split_type":[0,0,0,0,0,0,0,0,0,0,0,0,0,0,0,0,0,0,0,0,0,0,0,0,0,0,0,0,0,0,0,0,0,0,0,0,0,0,0,0,0,0,0,0,0,0,0,0,0,0,0,0,0,0,0,0,0,0,0,0,0],"sum_hessian":[8.328883E3,2.9724905E3,5.3563926E3,7.133553E0,2.965357E3,1.5279906E2,5.2035938E3,1.0097011E0,6.123852E0,1.06944895E1,2.9546624E3,1.1793521E2,3.4863846E1,9.353489E1,5.1100586E3,6.823856E0,3.8706343E0,1.7936954E3,1.1609669E3,1.2670832E1,2.2193014E1,1.4495475E0,9.2085335E1,8.003146E0,5.1020557E3,1.0756266E0,2.7950077E0,1.7921967E3,1.4988079E0,6.774392E2,4.835277E2,2.1802876E0,1.0490544E1,3.8567157E0,1.8336298E1,1.3110971E0,9.077424E1,1.5092399E0,6.4939065E0,7.1516304E1,5.030539E3,1.4983382E0,1.7906984E3,1.4993294E0,6.759399E2,3.3966763E2,1.4386008E2,1.3615135E0,9.12903E0,1.040362E0,2.8163536E0,1.2670765E0,1.7069221E1,4.564126E1,4.513298E1,1.2263526E0,5.267554E0,1.4151988E0,7.0101105E1,5.02783E3,2.7090454E0],"tree_param":{"num_deleted":"0","num_feature":"30980","num_nodes":"61","size_leaf_vector":"0"}},{"base_weights":[1.3191944E-2,9.3745524E-1,-1.9617222E-1,9.643029E-1,7.3180676E-1,9.682936E-1,-2.4937001E-1,9.652498E-1,3.5129732E-1,-9.3723565E-2,9.8336506E-1,9.090147E-1,-2.982009E-1,8.928548E-1,1.9742212E-1,3.645928E-1,-4.1528782E-1,-3.8263744E-1,9.9313104E-1,9.255846E-1,-4.752647E-1,2.2626424E-1,-3.4641254E-1,2.1314658E-1,9.505737E-1,9.2223567E-1,1.2670151E-2,-3.4421515E-1,1.0009441E0,9.3772185E-1,-4.133246E-1,-5.694255E-1,4.9455714E-1,9.9524003E-1,-3.64955E-1,-5.270469E-1,1.8455951E-1,-3.8949993E-1,1.0082086E0,-1.716611E-1,9.4708955E-1,1.447128E-1,-5.7660556E-1,1.4064829E0,4.2194143E-1,2.3501108E-3,1.0119305E0,-3.8084435E-1,1.0432633E0],"categories":[],"categories_nodes":[],"categories_segments":[],"categories_sizes":[],"default_left":[0,0,0,0,0,0,0,0,0,0,0,1,0,0,0,0,0,0,0,1,0,0,0,0,0,0,0,0,0,0,0,0,0,0,1,0,0,0,0,0,0,0,0,0,0,0,0,0,0],"id":13,"left_children":[1,3,5,-1,7,9,11,-1,13,15,17,19,21,23,25,-1,-1,-1,27,29,-1,31,33,-1,-1,-1,35,-1,37,39,-1,41,43,45,47,-1,-1,-1,-1,-1,-1,-1,-1,-1,-1,-1,-1,-1,-1],"loss_changes":[1.6222229E3,7.8426514E0,4.236518E2,0E0,1.5910461E1,4.875061E0,3.7004877E2,0E0,5.751088E0,9.02193E-1,4.311737E0,6.510803E0,1.5870715E2,4.0370178E-1,7.577659E0,0E0,0E0,0E0,3.4050598E0,4.6433105E0,0E0,1.1315873E2,1.4330457E2,0E0,0E0,0E0,4.381165E0,0E0,3.336731E0,2.8628845E0,0E0,7.6948166E-1,2.5626968E1,1.3001022E0,1.27227356E2,0E0,0E0,0E0,0E0,0E0,0E0,0E0,0E0,0E0,0E0,0E0,0E0,0E0,0E0],"parents":[2147483647,0,0,1,1,2,2,4,4,5,5,6,6,8,8,9,9,10,10,11,11,12,12,13,13,14,14,18,18,19,19,21,21,22,22,26,26,28,28,29,29,31,31,32,32,33,33,34,34],"right_children":[2,4,6,-1,8,10,12,-1,14,16,18,20,22,24,26,-1,-1,-1,28,30,-1,32,34,-1,-1,-1,36,-1,38,40,-1,42,44,46,48,-1,-1,-1,-1,-1,-1,-1,-1,-1,-1,-1,-1,-1,-1],"split_conditions":[8.000001E0,1.2000001E1,1.2000001E1,2.8929088E-1,4.000001E0,6.000001E0,2.5E0,2.8957495E-1,8.000001E0,1.5E0,4.000001E0,-9.536743E-7,1.5E0,2.000001E0,2.5E0,1.0937784E-1,-1.2458635E-1,-1.1479124E-1,6.000001E0,-9.536743E-7,-1.4257942E-1,4.000001E0,4.000001E0,6.3943975E-2,2.851721E-1,2.7667072E-1,4.000001E0,-1.0326455E-1,1.5E0,2.000001E0,-1.2399738E-1,2.000001E0,6.000001E0,4.000001E0,-9.536743E-7,-1.5811408E-1,5.5367853E-2,-1.1684998E-1,3.024626E-1,-5.149833E-2,2.8412688E-1,4.3413844E-2,-1.7298168E-1,4.219449E-1,1.2658243E-1,7.0503325E-4,3.0357915E-1,-1.1425331E-1,3.12979E-1],"split_indices":[22210,10829,9750,0,10846,23990,24396,0,14499,10227,18784,18174,23476,1014,14495,0,0,0,18211,2828,0,8196,9751,0,0,0,13316,0,2982,30040,0,16037,30291,8196,9758,0,0,0,0,0,0,0,0,0,0,0,0,0,0],"split_type":[0,0,0,0,0,0,0,0,0,0,0,0,0,0,0,0,0,0,0,0,0,0,0,0,0,0,0,0,0,0,0,0,0,0,0,0,0,0,0,0,0,0,0,0,0,0,0,0,0],"sum_hessian":[8.381301E3,1.5472596E3,6.834041E3,1.3653254E3,1.8193413E2,2.9781686E2,6.536224E3,1.11804924E2,7.01292E1,4.094256E0,2.937226E2,2.6367236E2,6.272552E3,1.445455E1,5.5674656E1,1.6329907E0,2.4612653E0,1.8139875E0,2.919086E2,2.6088095E2,2.7914028E0,5.277532E2,5.7447983E3,1.4986773E0,1.2955873E1,1.049789E1,4.5176765E1,1.4453974E0,2.904632E2,2.5883426E2,2.0466907E0,1.3279474E2,3.9495844E2,7.759622E1,5.667202E3,1.0413408E1,3.476336E1,1.2361946E0,2.8922702E2,2.0222573E0,2.56812E2,1.1311738E0,1.3166356E2,2.7775688E1,3.6718274E2,1.3016896E0,7.629453E1,5.6046924E3,6.2509945E1],"tree_param":{"num_deleted":"0","num_feature":"30980","num_nodes":"49","size_leaf_vector":"0"}},{"base_weights":[-1.0501162E-2,9.4783825E-1,-2.8077713E-1,-5.010203E-1,9.5197284E-1,7.4285644E-1,-3.946968E-1,-4.4559923E-1,9.5457447E-1,-4.7289056E-1,7.946797E-1,5.955559E-1,-4.5550758E-1,9.693637E-1,7.476591E-1,-5.348211E-1,1.7575653E-1,-5.047647E-1,8.471909E-1,9.467107E-1,-3.459166E-1,8.84797E-1,-5.0021887E-1,2.0812117E-1,9.699156E-1,2.4031076E-1,9.712767E-1,9.520783E-2,-5.704721E-1,1.3926859E-1,-5.422201E-1,-5.051898E-1,8.759959E-1,9.776643E-1,-1.4920124E-1,9.834662E-1,-4.568807E-1,-5.2227265E-1,9.8754555E-1,1.0508046E0,-5.318371E-1,9.703473E-1,4.0108883E-1,9.3462306E-1,-9.867143E-3,6.734344E-2,-5.640316E-1,-5.79637E-1,9.0208435E-1,9.825073E-1,7.813615E-2,-3.355286E-1,3.1566522E-1,1.0647871E0,3.4340623E-1,4.601214E-1,-5.184748E-1,1.5981224E0,8.812678E-1,8.561548E-1,-5.423277E-1],"categories":[],"categories_nodes":[],"categories_segments":[],"categories_sizes":[],"default_left":[0,0,0,0,0,0,0,0,0,1,0,0,0,0,1,0,0,0,0,0,0,0,0,0,1,0,0,0,0,0,0,0,0,0,0,1,0,0,0,0,0,0,0,0,0,0,0,0,0,0,0,0,0,0,0,0,0,0,0,0,0],"id":14,"left_children":[1,3,5,-1,7,9,11,-1,13,15,17,19,21,23,25,27,-1,29,31,33,35,37,39,-1,41,43,-1,-1,-1,-1,-1,45,47,49,51,53,55,-1,57,-1,59,-1,-1,-1,-1,-1,-1,-1,-1,-1,-1,-1,-1,-1,-1,-1,-1,-1,-1,-1,-1],"loss_changes":[2.1373774E3,1.1351318E1,7.5087665E2,0E0,7.0081787E0,4.10094E1,3.4909357E2,0E0,4.8060303E0,1.1783948E0,4.2661316E1,1.1126969E2,3.2752722E2,5.057373E-1,1.3941322E1,6.1335135E-1,0E0,6.7054176E-1,2.3631622E1,8.446014E0,1.40050745E1,2.6041748E1,2.596173E2,0E0,2.368164E-2,6.8792186E0,0E0,0E0,0E0,0E0,0E0,4.7758436E-1,2.2671051E1,9.604645E-1,7.632252E-1,1.9349575E-2,5.0676594E0,0E0,9.291458E0,0E0,7.585535E1,0E0,0E0,0E0,0E0,0E0,0E0,0E0,0E0,0E0,0E0,0E0,0E0,0E0,0E0,0E0,0E0,0E0,0E0,0E0,0E0],"parents":[2147483647,0,0,1,1,2,2,4,4,5,5,6,6,8,8,9,9,10,10,11,11,12,12,13,13,14,14,15,15,17,17,18,18,19,19,20,20,21,21,22,22,24,24,25,25,31,31,32,32,33,33,34,34,35,35,36,36,38,38,40,40],"right_children":[2,4,6,-1,8,10,12,-1,14,16,18,20,22,24,26,28,-1,30,32,34,36,38,40,-1,42,44,-1,-1,-1,-1,-1,46,48,50,52,54,56,-1,58,-1,60,-1,-1,-1,-1,-1,-1,-1,-1,-1,-1,-1,-1,-1,-1,-1,-1,-1,-1,-1,-1],"split_conditions":[8.000001E0,4.000001E0,1.0000001E1,-1.503061E-1,2.000001E0,8.000001E0,4.000001E0,-1.3367978E-1,1.0000001E1,1.5E0,6.000001E0,8.000001E0,6.000001E0,2.000001E0,-9.536743E-7,2.000001E0,5.272696E-2,2.000001E0,2.000001E0,1.2000001E1,4.000001E0,4.000001E0,6.000001E0,6.2436353E-2,-9.536743E-7,2.000001E0,2.9138303E-1,2.856235E-2,-1.7114164E-1,4.178058E-2,-1.6266604E-1,2.000001E0,4.000001E0,1.8E1,1.0000001E1,1.5E0,2.000001E0,-1.566818E-1,2.000001E0,3.152414E-1,1.5E0,2.911042E-1,1.2032665E-1,2.8038692E-1,-2.960143E-3,2.0203033E-2,-1.6920948E-1,-1.738911E-1,2.7062532E-1,2.947522E-1,2.3440847E-2,-1.0065859E-1,9.469957E-2,3.1943616E-1,1.03021875E-1,1.3803643E-1,-1.5554245E-1,4.7943673E-1,2.6438034E-1,2.5684646E-1,-1.6269831E-1],"split_indices":[8196,3811,2982,0,3825,3811,9967,0,10537,30758,22210,19435,22053,12876,10567,19010,0,22053,13072,1409,22053,22210,18587,0,11682,18784,0,0,0,0,0,876,4859,30758,27342,13953,4045,0,13349,0,20150,0,0,0,0,0,0,0,0,0,0,0,0,0,0,0,0,0,0,0,0],"split_type":[0,0,0,0,0,0,0,0,0,0,0,0,0,0,0,0,0,0,0,0,0,0,0,0,0,0,0,0,0,0,0,0,0,0,0,0,0,0,0,0,0,0,0,0,0,0,0,0,0,0,0,0,0,0,0,0,0,0,0,0,0],"sum_hessian":[8.249882E3,1.8142921E3,6.43559E3,4.8207035E0,1.8094714E3,6.4393585E2,5.791654E3,3.0457304E0,1.8064257E3,2.599446E1,6.1794135E2,3.3457574E2,5.457078E3,1.6824855E3,1.23940254E2,2.3889095E1,2.1053658E0,2.3666887E1,5.942745E2,2.4368092E2,9.089481E1,1.7555952E2,5.2815186E3,1.4929614E0,1.6809924E3,3.855057E1,8.538969E1,1.1899308E0,2.2699163E1,1.1513622E0,2.2515526E1,1.2048826E1,5.8222565E2,2.3709225E2,6.58867E0,6.396764E0,8.4498055E1,1.1669599E1,1.6388994E2,1.0487108E2,5.1766475E3,1.6790126E3,1.9798928E0,9.486658E0,2.9063911E1,1.1094409E0,1.0939385E1,9.8776E0,5.72348E2,2.3573085E2,1.3614061E0,4.902057E0,1.6866128E0,5.0868893E0,1.3098744E0,4.9111743E0,7.9586876E1,2.2216522E1,1.4167342E2,3.8227467E1,5.13842E3],"tree_param":{"num_deleted":"0","num_feature":"30980","num_nodes":"61","size_leaf_vector":"0"}},{"base_weights":[-1.8172923E-2,-5.345952E-1,2.3914872E-2,1.7189799E-1,-5.361729E-1,-2.1269138E-1,1.4427736E-1,1.18284054E-1,-5.3766006E-1,9.3641305E-1,-2.4525826E-1,-5.3034246E-1,1.8418568E-1,8.123721E-2,-5.3920764E-1,-3.8567272E-1,1.0160377E0,-1.6149767E-1,-4.4787285E-1,-1.0576248E-1,-5.4359835E-1,-4.475326E-1,2.338572E-1,7.043212E-2,-5.407998E-1,-1.9001007E-2,-5.3258246E-1,-2.8171304E-1,1.0763953E0,-4.4542992E-1,-8.739607E-2,2.565367E-1,-4.5955196E-1,5.388063E-1,-2.6881224E-1,-5.4709387E-1,1.4105245E-1,-5.53096E-1,-2.0155068E-1,-8.968456E-2,3.0650562E-1,5.51421E-2,-5.424428E-1,-1.9001007E-2,-4.2737412E-1,-1.2314023E-1,1.1136104E0,-5.385566E-1,-3.3298132E-1,-5.361701E-1,-2.4875078E-2,9.680515E-1,4.2870175E-2,8.2598335E-1,-4.6446934E-1,1.9339776E-1,-3.6110213E-1,-2.7958516E-2,-5.5084497E-1,-5.0382423E-1,7.285153E-2,1.5242151E-2,-3.74003E-1,-6.0862654E-1,3.3777088E-1],"categories":[],"categories_nodes":[],"categories_segments":[],"categories_sizes":[],"default_left":[0,0,0,0,0,0,0,0,0,0,0,0,0,0,0,0,0,0,0,0,1,0,0,0,0,0,0,0,0,0,0,0,0,0,0,0,0,0,0,1,0,0,0,0,0,0,0,0,0,0,0,0,0,0,0,0,0,0,0,0,0,0,0,0,0],"id":15,"left_children":[1,3,5,-1,7,9,11,-1,13,15,17,19,21,-1,23,25,27,29,31,33,35,37,39,-1,41,-1,-1,43,45,47,49,51,53,-1,55,57,-1,-1,59,61,63,-1,-1,-1,-1,-1,-1,-1,-1,-1,-1,-1,-1,-1,-1,-1,-1,-1,-1,-1,-1,-1,-1,-1,-1],"loss_changes":[1.7341344E2,7.6234436E-1,2.1013611E2,0E0,6.476898E-1,9.333767E1,1.3176904E2,0E0,6.174927E-1,7.6320534E0,4.1001648E1,1.4813461E0,1.4501826E2,0E0,6.1813354E-1,2.3938233E-1,5.406006E0,3.602148E1,5.93692E0,1.1453005E0,7.1112823E-1,8.6393585E0,1.0068109E2,0E0,6.136322E-1,0E0,0E0,1.3299948E-1,2.9252853E0,3.5327835E0,3.815734E1,1.8098569E0,4.7842712E0,0E0,4.2238694E-1,4.9821472E-1,0E0,0E0,8.560886E0,2.3454147E1,1.00268555E2,0E0,0E0,0E0,0E0,0E0,0E0,0E0,0E0,0E0,0E0,0E0,0E0,0E0,0E0,0E0,0E0,0E0,0E0,0E0,0E0,0E0,0E0,0E0,0E0],"parents":[2147483647,0,0,1,1,2,2,4,4,5,5,6,6,8,8,9,9,10,10,11,11,12,12,14,14,15,15,16,16,17,17,18,18,19,19,20,20,21,21,22,22,24,24,27,27,28,28,29,29,30,30,31,31,32,32,34,34,35,35,38,38,39,39,40,40],"right_children":[2,4,6,-1,8,10,12,-1,14,16,18,20,22,-1,24,26,28,30,32,34,36,38,40,-1,42,-1,-1,44,46,48,50,52,54,-1,56,58,-1,-1,60,62,64,-1,-1,-1,-1,-1,-1,-1,-1,-1,-1,-1,-1,-1,-1,-1,-1,-1,-1,-1,-1,-1,-1,-1,-1],"split_conditions":[8.000001E0,2.000001E0,1.4000001E1,5.15694E-2,2.000001E0,1.5E0,8.000001E0,3.548522E-2,2.000001E0,6.000001E0,1.5E0,1.5E0,6.000001E0,2.4371164E-2,2.000001E0,2.000001E0,2.000001E0,8.000001E0,1.5E0,2.000001E0,-9.536743E-7,8.000001E0,1.4000001E1,2.1129636E-2,1.5E0,-5.7003023E-3,-1.5977475E-1,2.000001E0,4.000001E0,6.000001E0,6.000001E0,4.000001E0,2.000001E0,1.616419E-1,2.000001E0,2.000001E0,4.2315736E-2,-1.6592881E-1,4.000001E0,1.5E0,1.2000001E1,1.654263E-2,-1.6273284E-1,-5.7003023E-3,-1.2821224E-1,-3.6942072E-2,3.3408314E-1,-1.6156697E-1,-9.98944E-2,-1.6085105E-1,-7.462524E-3,2.9041547E-1,1.2861053E-2,2.4779502E-1,-1.393408E-1,5.801933E-2,-1.08330645E-1,-8.387555E-3,-1.6525349E-1,-1.5114728E-1,2.185546E-2,4.5726453E-3,-1.122009E-1,-1.8258797E-1,1.0133127E-1],"split_indices":[8196,26552,1051,0,337,14816,22210,0,9617,12280,1051,23476,12374,0,21977,19301,26084,23990,23476,13316,5698,3811,1409,0,8095,0,0,1409,3974,12374,22210,27433,1125,0,12788,16228,0,0,3825,30758,2932,0,0,0,0,0,0,0,0,0,0,0,0,0,0,0,0,0,0,0,0,0,0,0,0],"split_type":[0,0,0,0,0,0,0,0,0,0,0,0,0,0,0,0,0,0,0,0,0,0,0,0,0,0,0,0,0,0,0,0,0,0,0,0,0,0,0,0,0,0,0,0,0,0,0,0,0,0,0,0,0,0,0,0,0,0,0,0,0,0,0,0,0],"sum_hessian":[7.976918E3,6.00237E2,7.376681E3,1.0969167E0,5.991401E2,2.487006E3,4.8896753E3,1.1803E0,5.979598E2,6.777702E1,2.419229E3,2.7241513E2,4.61726E3,1.3630806E0,5.965967E2,3.6317592E0,6.414526E1,1.7129111E3,7.063179E2,8.519442E0,2.638957E2,3.3600214E2,4.281258E3,1.4413654E0,5.9515533E2,1.3619096E0,2.2698495E0,2.6877816E0,6.145748E1,3.534809E2,1.3594302E3,1.1177829E1,6.951401E2,1.2547215E0,7.2647204E0,2.6275507E2,1.1406004E0,2.3423247E2,1.0176965E2,7.8500085E2,3.496257E3,1.5467932E0,5.936085E2,1.3619096E0,1.325872E0,1.7798419E0,5.967764E1,1.912795E2,1.622014E2,1.6530432E2,1.1941259E3,1.7660784E0,9.411751E0,2.012633E0,6.9312744E2,1.0267851E0,6.237935E0,1.9456112E0,2.6080948E2,4.802767E1,5.374198E1,5.740837E2,2.1091718E2,1.1489258E2,3.3813645E3],"tree_param":{"num_deleted":"0","num_feature":"30980","num_nodes":"65","size_leaf_vector":"0"}},{"base_weights":[1.6861089E-2,7.9596895E-1,-7.5289235E-2,-3.0162272E-1,7.978554E-1,7.781994E-1,-1.708095E-1,7.991759E-1,9.016563E-2,7.8112143E-1,-4.2111015E-1,8.0545247E-1,-2.460395E-1,8.003336E-1,9.2987806E-2,2.3615469E-1,7.888105E-1,-1.6677043E-1,8.1170124E-1,8.191401E-1,-3.10726E-1,8.019602E-1,2.3953629E-1,-5.628013E-1,7.1986085E-1,-2.5747246E-1,7.915029E-1,-3.4284458E-1,1.3440603E-1,-9.124142E-2,8.1697667E-1,3.1476018E-1,8.242983E-1,8.918837E-1,-3.560551E-1,1.08936116E-1,8.030945E-1,3.9183512E-1,-1.5777681E-2,-1.3106368E-1,7.943519E-1,-1.8387838E-1,8.214686E-1,5.9385794E-1,-1.9343698E-1,1.2380005E-1,8.271336E-1,9.0089035E-1,-1.7654742E-1,2.5115054E0,-3.7520897E-1],"categories":[],"categories_nodes":[],"categories_segments":[],"categories_sizes":[],"default_left":[0,0,0,0,1,1,0,1,0,0,0,0,0,1,0,0,0,0,0,0,0,0,0,0,0,0,0,0,0,0,0,0,0,1,0,0,0,0,0,0,0,0,0,0,0,0,0,0,0,0,0],"id":16,"left_children":[1,3,5,-1,7,9,11,13,-1,15,-1,17,19,21,-1,23,25,27,29,31,33,35,37,-1,-1,-1,39,-1,-1,-1,41,43,45,47,49,-1,-1,-1,-1,-1,-1,-1,-1,-1,-1,-1,-1,-1,-1,-1,-1],"loss_changes":[5.440387E2,1.9000854E0,5.525791E2,0E0,6.759033E-1,2.719818E0,4.4784964E2,5.7855225E-1,0E0,2.6669922E0,0E0,2.7860718E0,3.902308E2,5.3518677E-1,0E0,4.617958E0,2.0940857E0,2.3783463E-1,2.1404114E0,5.8432007E-1,2.9122748E2,5.371704E-1,1.51287E-1,0E0,0E0,0E0,1.8639832E0,0E0,0E0,0E0,2.0899963E0,8.099953E-1,5.3393555E-1,2.0271149E0,2.8344183E2,0E0,0E0,0E0,0E0,0E0,0E0,0E0,0E0,0E0,0E0,0E0,0E0,0E0,0E0,0E0,0E0],"parents":[2147483647,0,0,1,1,2,2,4,4,5,5,6,6,7,7,9,9,11,11,12,12,13,13,15,15,16,16,17,17,18,18,19,19,20,20,21,21,22,22,26,26,30,30,31,31,32,32,33,33,34,34],"right_children":[2,4,6,-1,8,10,12,14,-1,16,-1,18,20,22,-1,24,26,28,30,32,34,36,38,-1,-1,-1,40,-1,-1,-1,42,44,46,48,50,-1,-1,-1,-1,-1,-1,-1,-1,-1,-1,-1,-1,-1,-1,-1,-1],"split_conditions":[8.000001E0,2.000001E0,1.0000001E1,-9.048682E-2,2.5E0,-9.536743E-7,8.000001E0,-9.536743E-7,2.704969E-2,1.5E0,-1.2633306E-1,2.000001E0,6.000001E0,-9.536743E-7,2.7896343E-2,4.000001E0,2.000001E0,2.000001E0,6.000001E0,2.000001E0,8.000001E0,2.000001E0,1.5E0,-1.688404E-1,2.1595827E-1,-7.724174E-2,2.000001E0,-1.0285338E-1,4.0321812E-2,-2.7372427E-2,4.000001E0,8.000001E0,2.000001E0,-9.536743E-7,6.000001E0,3.2680836E-2,2.4092837E-1,1.17550544E-1,-4.7333045E-3,-3.9319105E-2,2.3830557E-1,-5.5163514E-2,2.4644059E-1,1.7815739E-1,-5.8031097E-2,3.7140016E-2,2.4814008E-1,2.7026713E-1,-5.296423E-2,7.5345165E-1,-1.1256269E-1],"split_indices":[18215,18784,18211,0,20364,29046,4859,20395,0,10829,0,3811,13988,11847,0,22210,2932,11116,2932,19304,13978,23041,13953,0,0,0,9924,0,0,0,14495,30758,14652,19456,17774,0,0,0,0,0,0,0,0,0,0,0,0,0,0,0,0],"split_type":[0,0,0,0,0,0,0,0,0,0,0,0,0,0,0,0,0,0,0,0,0,0,0,0,0,0,0,0,0,0,0,0,0,0,0,0,0,0,0,0,0,0,0,0,0,0,0,0,0,0,0],"sum_hessian":[7.575828E3,8.004644E2,6.775364E3,1.1007843E0,7.9936365E2,6.812391E2,6.094125E3,7.977458E2,1.6178409E0,6.7993115E2,1.3079351E0,4.353155E2,5.658809E3,7.9630707E2,1.4387573E0,9.9010515E0,6.700301E2,2.616E0,4.326995E2,3.2330743E2,5.335502E3,7.935753E2,2.7317321E0,3.6721318E0,6.22892E0,1.4768887E0,6.685532E2,1.563559E0,1.0524409E0,2.4186893E0,4.3028082E2,3.900856E0,3.1940656E2,1.9312404E2,5.142378E3,1.4553721E0,7.9211993E2,1.37613E0,1.3556023E0,1.9196504E0,6.6663354E2,1.7440825E0,4.2853674E2,2.4091902E0,1.4916658E0,1.4676385E0,3.1793893E2,1.9166515E2,1.4588941E0,3.3257225E1,5.1091206E3],"tree_param":{"num_deleted":"0","num_feature":"30980","num_nodes":"51","size_leaf_vector":"0"}},{"base_weights":[1.2851536E-3,7.597464E-1,-4.767434E-1,-3.3953694E-1,7.6216495E-1,7.022858E-1,-5.17741E-1,1.8352033E-1,-4.6080717E-1,8.080056E-1,7.1666527E-1,8.459291E-1,2.3655137E-1,7.0562464E-1,-5.4498804E-1,1.4591795E-1,8.086036E-1,8.1907856E-1,5.724291E-1,9.006779E-1,1.0699678E-1,8.7797165E-1,5.342266E-1,3.0036473E-1,-5.4669374E-1,8.090963E-1,1.8517996E-1,7.5612046E-2,8.2026637E-1,8.5027033E-1,-1.6635734E-1,8.0061895E-1,-2.9334858E-2,8.9927053E-1,-1.10818185E-2,-3.6495504E-1,4.936973E-1,-2.9658797E-1,-5.507263E-1,2.1354164E-1,8.095093E-1,7.7717625E-2,8.214542E-1,8.5246754E-1,1.2163546E-1,9.3316287E-1,-2.11465E-1,2.9502273E-1,9.153689E-1,7.614925E-1,-1.4994101E-1,6.384148E-1,-1.0120781E-1,-3.8296443E-1,7.190878E-1,6.121266E-1,-3.4353456E-1,1.4207725E-1,-5.5118436E-1],"categories":[],"categories_nodes":[],"categories_segments":[],"categories_sizes":[],"default_left":[0,0,0,0,0,0,0,0,0,0,0,0,0,0,0,0,1,0,0,0,0,0,0,0,0,0,0,0,0,1,0,0,0,0,0,0,0,0,0,0,0,0,0,0,0,0,0,0,0,0,0,0,0,0,0,0,0,0,0],"id":17,"left_children":[1,3,5,7,9,11,13,-1,-1,15,17,-1,19,21,23,-1,25,27,29,-1,31,-1,33,35,37,39,-1,-1,41,43,45,47,49,-1,51,-1,53,55,57,-1,-1,-1,-1,-1,-1,-1,-1,-1,-1,-1,-1,-1,-1,-1,-1,-1,-1,-1,-1],"loss_changes":[2.6636726E3,7.8103027E0,2.1819482E2,5.2395785E-1,5.3323975E0,9.959221E0,1.4557031E2,0E0,0E0,4.3798828E-1,2.067389E1,0E0,3.1030238E0,2.3470345E0,6.308716E0,0E0,2.8094482E-1,6.7510986E-1,1.22812454E2,0E0,3.0731058E0,0E0,1.0032962E1,1.3669353E0,4.1259766E0,1.7181396E-1,0E0,0E0,6.7108154E-1,5.918884E-1,8.339367E0,3.9340496E-2,2.7768562E0,0E0,1.304315E0,0E0,1.7719295E0,3.1817575E0,1.4063721E0,0E0,0E0,0E0,0E0,0E0,0E0,0E0,0E0,0E0,0E0,0E0,0E0,0E0,0E0,0E0,0E0,0E0,0E0,0E0,0E0],"parents":[2147483647,0,0,1,1,2,2,3,3,4,4,5,5,6,6,9,9,10,10,12,12,13,13,14,14,16,16,17,17,18,18,20,20,22,22,23,23,24,24,25,25,28,28,29,29,30,30,31,31,32,32,34,34,36,36,37,37,38,38],"right_children":[2,4,6,8,10,12,14,-1,-1,16,18,-1,20,22,24,-1,26,28,30,-1,32,-1,34,36,38,40,-1,-1,42,44,46,48,50,-1,52,-1,54,56,58,-1,-1,-1,-1,-1,-1,-1,-1,-1,-1,-1,-1,-1,-1,-1,-1,-1,-1,-1,-1],"split_conditions":[8.000001E0,4.000001E0,8.000001E0,2.000001E0,1.0000001E1,4.000001E0,8.000001E0,5.5056103E-2,-1.3824216E-1,2.000001E0,8.000001E0,2.5377873E-1,4.000001E0,4.000001E0,4.000001E0,4.3775387E-2,-9.536743E-7,2.000001E0,6.000001E0,2.7020338E-1,1.5E0,2.633915E-1,4.000001E0,3E0,2.5E0,4.000001E0,5.555399E-2,2.2683615E-2,2.000001E0,-9.536743E-7,2.000001E0,2.000001E0,1.5E0,2.6978117E-1,6.000001E0,-1.0948651E-1,2.000001E0,4.000001E0,2.000001E0,6.40625E-2,2.4285279E-1,2.3315288E-2,2.4643628E-1,2.5574028E-1,3.6490638E-2,2.7994886E-1,-6.34395E-2,8.850682E-2,2.746107E-1,2.2844775E-1,-4.4982307E-2,1.9152445E-1,-3.0362343E-2,-1.1488933E-1,2.1572635E-1,1.8363798E-1,-1.0306037E-1,4.2623177E-2,-1.6535531E-1],"split_indices":[23990,18784,3811,12374,3811,12374,23998,0,0,8021,3825,0,23998,3825,3813,0,12004,8349,3813,0,18266,0,3813,19301,3825,3116,0,0,15610,6897,1605,15920,2982,0,30389,0,29999,29730,420,0,0,0,0,0,0,0,0,0,0,0,0,0,0,0,0,0,0,0,0],"split_type":[0,0,0,0,0,0,0,0,0,0,0,0,0,0,0,0,0,0,0,0,0,0,0,0,0,0,0,0,0,0,0,0,0,0,0,0,0,0,0,0,0,0,0,0,0,0,0,0,0,0,0,0,0,0,0,0,0,0,0],"sum_hessian":[7.344724E3,2.839252E3,4.505472E3,5.9270315E0,2.833325E3,1.5085939E2,4.354613E3,1.0189264E0,4.908105E0,1.4030266E3,1.4302983E3,1.1467473E2,3.618467E1,9.433105E1,4.2602817E3,1.4871778E0,1.4015394E3,8.336765E2,5.9662177E2,4.9349375E0,3.1249731E1,4.49798E1,4.9351246E1,8.226282E0,4.252055E3,1.400135E3,1.4043785E0,1.4329326E0,8.322436E2,4.3345724E2,1.6316455E2,4.3328195E0,2.6916912E1,2.9172977E1,2.017827E1,1.6523402E0,6.573942E0,6.8653E1,4.1834023E3,1.3293338E0,1.3988057E3,1.4352608E0,8.3080835E2,4.3198462E2,1.4726094E0,5.654166E0,1.5751039E2,1.4620283E0,2.870791E0,2.8586383E0,2.4058273E1,1.7174946E0,1.8460775E1,1.2015132E0,5.372429E0,2.781158E0,6.587184E1,2.559729E0,4.1808423E3],"tree_param":{"num_deleted":"0","num_feature":"30980","num_nodes":"59","size_leaf_vector":"0"}},{"base_weights":[1.4661122E-2,7.7413E-1,-1.660493E-1,7.9846233E-1,5.9146845E-1,8.050622E-1,-2.1483499E-1,7.973266E-1,2.6925334E-1,-2.1773237E-1,8.148589E-1,3.349234E-1,-2.9128787E-1,7.250746E-1,1.4212605E-1,1.2880614E-2,-3.375056E-1,-3.4619415E-1,8.221814E-1,-5.173432E-1,4.88735E-1,8.302418E-1,-3.08984E-1,1.1022945E-1,7.832013E-1,7.566487E-1,-9.94923E-3,-3.669262E-1,8.28922E-1,-5.5952305E-1,1.6735138E-1,7.409995E-1,3.2500336E-1,-3.303206E-1,8.498961E-1,6.2936974E-1,-3.2977414E-1,-3.5346583E-1,1.8529859E-1,-3.121586E-1,8.3491904E-1,6.597959E-1,-4.1870323E-1,-4.4795853E-1,7.580622E-1,-5.6707394E-1,3.6158025E-1,2.612599E-1,8.7334275E-1,-1.9297834E-1,1.2975687E0,-3.4526473E-1,8.738244E-1],"categories":[],"categories_nodes":[],"categories_segments":[],"categories_sizes":[],"default_left":[0,0,0,0,0,0,0,0,0,0,0,0,0,0,0,0,0,0,0,0,0,0,0,0,0,0,0,0,0,0,1,0,0,0,0,0,1,0,0,0,0,0,0,0,0,0,0,0,0,0,0,0,0],"id":18,"left_children":[1,3,5,-1,7,9,11,-1,13,15,17,19,21,23,25,-1,-1,-1,27,29,31,33,35,-1,-1,-1,37,-1,39,-1,41,43,45,-1,47,49,51,-1,-1,-1,-1,-1,-1,-1,-1,-1,-1,-1,-1,-1,-1,-1,-1],"loss_changes":[1.0387734E3,5.9936523E0,2.8983612E2,0E0,1.1384487E1,3.1100006E0,2.4481729E2,0E0,3.9346495E0,1.0284077E-1,2.7510529E0,9.349771E1,1.0171512E2,4.4801807E-1,5.215454E0,0E0,0E0,0E0,2.6172485E0,3.2483158E0,2.4668594E1,2.09824E0,9.840207E1,0E0,0E0,0E0,3.1279085E0,0E0,2.22641E0,0E0,2.327753E0,5.1391296E0,1.2196205E1,0E0,8.5708237E-1,6.03906E1,9.2125244E1,0E0,0E0,0E0,0E0,0E0,0E0,0E0,0E0,0E0,0E0,0E0,0E0,0E0,0E0,0E0,0E0],"parents":[2147483647,0,0,1,1,2,2,4,4,5,5,6,6,8,8,9,9,10,10,11,11,12,12,13,13,14,14,18,18,19,19,20,20,21,21,22,22,26,26,28,28,30,30,31,31,32,32,34,34,35,35,36,36],"right_children":[2,4,6,-1,8,10,12,-1,14,16,18,20,22,24,26,-1,-1,-1,28,30,32,34,36,-1,-1,-1,38,-1,40,-1,42,44,46,-1,48,50,52,-1,-1,-1,-1,-1,-1,-1,-1,-1,-1,-1,-1,-1,-1,-1,-1],"split_conditions":[8.000001E0,1.2000001E1,1.2000001E1,2.3953871E-1,4.000001E0,2.000001E0,1.5E0,2.39198E-1,8.000001E0,2.000001E0,4.000001E0,4.000001E0,4.000001E0,4.000001E0,2.5E0,3.8641843E-3,-1.01251684E-1,-1.0385825E-1,1.5E0,6.000001E0,8.000001E0,4.000001E0,2.5E0,3.3068836E-2,2.3496039E-1,2.2699462E-1,8.000001E0,-1.10077865E-1,6.000001E0,-1.6785692E-1,-9.536743E-7,4.000001E0,4.000001E0,-9.909619E-2,2.000001E0,4.000001E0,-9.536743E-7,-1.06039755E-1,5.558958E-2,-9.3647584E-2,2.5047573E-1,1.9793877E-1,-1.2561098E-1,-1.3438757E-1,2.2741866E-1,-1.7012219E-1,1.0847408E-1,7.837798E-2,2.6200283E-1,-5.7893503E-2,3.8927063E-1,-1.03579424E-1,2.6214734E-1],"split_indices":[22210,10829,9750,0,10846,3811,23476,0,14499,3918,18784,8196,9751,29684,14495,0,0,0,2982,10537,19000,3811,14816,0,0,0,1051,0,18211,0,10567,13978,13978,0,10537,1062,9758,0,0,0,0,0,0,0,0,0,0,0,0,0,0,0,0],"split_type":[0,0,0,0,0,0,0,0,0,0,0,0,0,0,0,0,0,0,0,0,0,0,0,0,0,0,0,0,0,0,0,0,0,0,0,0,0,0,0,0,0,0,0,0,0,0,0,0,0,0,0,0,0],"sum_hessian":[7.5668745E3,1.4537861E3,6.1130884E3,1.2799171E3,1.73869E2,2.9167154E2,5.821417E3,1.05190155E2,6.867884E1,2.5658572E0,2.8910568E2,7.103125E2,5.1111045E3,1.3951501E1,5.472734E1,1.1821629E0,1.3836942E0,1.5218568E0,2.8758383E2,1.082329E2,6.020796E2,7.867994E1,5.0324243E3,1.455204E0,1.2496297E1,1.0067993E1,4.4659348E1,1.319823E0,2.86264E2,1.0212445E2,6.108452E0,2.3558438E2,3.6649518E2,1.0470388E0,7.76329E1,1.0844687E2,4.9239775E3,1.5890846E1,2.8768501E1,1.2297165E0,2.850343E2,3.2509484E0,2.8575032E0,2.9757364E0,2.3260864E2,1.3863899E1,3.526313E2,3.4389794E0,7.4193924E1,4.893459E1,5.951228E1,4.8621143E3,6.1863403E1],"tree_param":{"num_deleted":"0","num_feature":"30980","num_nodes":"53","size_leaf_vector":"0"}},{"base_weights":[-1.415487E-2,7.848943E-1,-2.5936982E-1,-4.6391785E-1,7.8805166E-1,6.204958E-1,-3.715558E-1,8.0343676E-1,5.823578E-1,-4.3230367E-1,6.585617E-1,5.214076E-1,-4.317655E-1,1.4758591E-1,8.039567E-1,1.4213334E-1,7.9622716E-1,-5.020013E-1,1.6742148E-1,-4.7521687E-1,6.9577706E-1,7.957117E-1,-3.101916E-1,7.2490174E-1,-4.7746196E-1,8.0438167E-1,3.1118846E-1,7.6669556E-1,-6.0950488E-2,2.2022009E-1,8.0289704E-1,1.2289448E-1,-5.444743E-1,1.4484844E-1,-5.218263E-1,-4.1499653E-1,7.208722E-1,8.198416E-1,-1.0758356E-1,8.1659347E-1,-4.2375353E-1,-4.968606E-1,7.9577875E-1,8.805212E-1,-5.0980973E-1,9.1325426E-1,-2.2752582E-1,-5.346085E-1,4.398837E-1,-4.6152905E-1,7.4223036E-1,2.0230003E-1,8.267629E-1,-4.2511636E-1,1.7481434E-1,5.9522647E-1,-4.8303652E-1,-2.9460776E-1,8.2536894E-1,1.4430516E0,-5.168616E-1],"categories":[],"categories_nodes":[],"categories_segments":[],"categories_sizes":[],"default_left":[0,0,0,0,0,0,0,0,1,1,0,0,0,0,1,0,0,0,0,0,0,0,0,0,0,0,0,0,0,0,0,0,0,0,0,0,0,0,0,0,0,0,0,0,0,0,0,0,0,0,0,0,0,0,0,0,0,0,0,0,0],"id":19,"left_children":[1,3,5,-1,7,9,11,13,15,17,19,21,23,-1,25,27,29,31,-1,33,35,37,39,41,43,-1,-1,-1,45,-1,-1,-1,-1,-1,-1,47,49,51,53,-1,55,-1,57,-1,59,-1,-1,-1,-1,-1,-1,-1,-1,-1,-1,-1,-1,-1,-1,-1,-1],"loss_changes":[1.4282723E3,7.114746E0,5.5079144E2,0E0,4.9365234E0,2.5577362E1,2.6622858E2,4.222412E-1,1.1418266E1,1.0298314E0,2.6047638E1,7.16401E1,2.4536053E2,0E0,8.154297E-2,5.2806225E0,1.3904572E-1,6.11567E-1,0E0,6.525779E-1,1.6760162E1,5.2240143E0,1.0371546E1,1.5685745E1,1.9636523E2,0E0,0E0,0E0,5.411308E0,0E0,0E0,0E0,0E0,0E0,0E0,1.6341445E0,1.4935486E1,8.1417847E-1,7.0331824E-1,0E0,4.6268682E0,0E0,5.640274E0,0E0,6.0745117E1,0E0,0E0,0E0,0E0,0E0,0E0,0E0,0E0,0E0,0E0,0E0,0E0,0E0,0E0,0E0,0E0],"parents":[2147483647,0,0,1,1,2,2,4,4,5,5,6,6,7,7,8,8,9,9,10,10,11,11,12,12,14,14,15,15,16,16,17,17,19,19,20,20,21,21,22,22,23,23,24,24,28,28,35,35,36,36,37,37,38,38,40,40,42,42,44,44],"right_children":[2,4,6,-1,8,10,12,14,16,18,20,22,24,-1,26,28,30,32,-1,34,36,38,40,42,44,-1,-1,-1,46,-1,-1,-1,-1,-1,-1,48,50,52,54,-1,56,-1,58,-1,60,-1,-1,-1,-1,-1,-1,-1,-1,-1,-1,-1,-1,-1,-1,-1,-1],"split_conditions":[8.000001E0,4.000001E0,1.0000001E1,-1.3917536E-1,1.0000001E1,8.000001E0,4.000001E0,2.000001E0,-9.536743E-7,1.5E0,6.000001E0,8.000001E0,6.000001E0,4.4275776E-2,-9.536743E-7,2.000001E0,2.000001E0,2.000001E0,5.0226446E-2,2.000001E0,4.000001E0,1.2000001E1,4.000001E0,4.000001E0,6.000001E0,2.4131452E-1,9.335654E-2,2.3000868E-1,4.000001E0,6.606603E-2,2.4086912E-1,3.6868345E-2,-1.633423E-1,4.345453E-2,-1.565479E-1,6.5E0,2.000001E0,1.5E0,6.000001E0,2.4497806E-1,6.000001E0,-1.4905818E-1,4.000001E0,2.6415637E-1,4.000001E0,2.739763E-1,-6.825775E-2,-1.6038255E-1,1.3196512E-1,-1.3845871E-1,2.2266911E-1,6.069001E-2,2.4802889E-1,-1.2753491E-1,5.2444305E-2,1.7856795E-1,-1.4491096E-1,-8.838233E-2,2.4761069E-1,4.3291548E-1,-1.5505849E-1],"split_indices":[8196,3811,2982,0,10537,3811,9967,12876,10567,30758,22210,19435,22053,0,11682,18784,29051,19010,0,19435,13070,1409,22053,22210,18587,0,0,0,30040,0,0,0,0,0,0,30758,13072,30350,27728,0,30040,0,18215,0,18590,0,0,0,0,0,0,0,0,0,0,0,0,0,0,0,0],"split_type":[0,0,0,0,0,0,0,0,0,0,0,0,0,0,0,0,0,0,0,0,0,0,0,0,0,0,0,0,0,0,0,0,0,0,0,0,0,0,0,0,0,0,0,0,0,0,0,0,0,0,0,0,0,0,0,0,0,0,0,0,0],"sum_hessian":[7.2873413E3,1.7107026E3,5.5766387E3,3.9461882E0,1.7067565E3,6.301209E2,4.946518E3,1.5852777E3,1.2147874E2,2.162677E1,6.0849414E2,3.119759E2,4.634542E3,1.4813038E0,1.5837964E3,4.026423E1,8.121451E1,1.9521059E1,2.1057098E0,1.89645E1,5.895296E2,2.3462701E2,7.734887E1,1.7557333E2,4.4589688E3,1.5817997E3,1.9966938E0,9.198863E0,3.1065367E1,1.3190547E0,7.9895454E1,1.1218644E0,1.8399195E1,1.1785154E0,1.7785986E1,1.2681427E1,5.768482E2,2.2861244E2,6.014583E0,6.514995E0,7.083388E1,9.297365E0,1.6627597E2,1.03133415E2,4.3558354E3,3.8815935E0,2.7183773E1,1.1453527E1,1.2278992E0,9.869286E0,5.6697894E2,2.8688984E0,2.2574353E2,2.5932782E0,3.421305E0,3.3974075E0,6.743647E1,4.1564393E0,1.6211954E2,1.4939809E1,4.3408955E3],"tree_param":{"num_deleted":"0","num_feature":"30980","num_nodes":"61","size_leaf_vector":"0"}},{"base_weights":[-1.1713418E-2,-5.500158E-1,2.052423E-2,-5.3463876E-1,-6.0835767E-1,-4.699408E-1,6.20267E-2,-5.3964233E-1,-2.6605287E-1,-5.153993E-1,1.0135104E-1,-5.0216717E-1,-7.5402915E-2,-1.3463365E-1,-5.2570146E-1,-1.40302E-1,1.8429539E-1,1.5557386E-1,-5.1584685E-1,-5.3224593E-1,4.4575694E-1,-4.2791724E-1,3.3242628E-2,1.5909778E-1,-5.281126E-1,-3.3221215E-1,-3.28906E-2,-5.7577676E-1,2.1039362E-1,-2.4426799E-1,-5.312004E-1,6.1490864E-1,-3.7825456E-1,4.2501506E-1,-1.0174163E-1,-5.303574E-1,1.0467413E-1,1.7235024E-1,-3.5517946E-1,-1.6418274E-1,1.717439E-1,4.8146856E-1,-5.9330314E-1,-5.1590514E-1,2.3934276E-1],"categories":[],"categories_nodes":[],"categories_segments":[],"categories_sizes":[],"default_left":[0,0,0,0,0,0,0,0,0,0,0,0,0,0,0,0,0,0,0,0,1,0,0,0,1,0,0,0,0,0,0,0,0,0,0,0,0,0,0,0,0,0,0,0,0],"id":20,"left_children":[1,3,5,-1,-1,7,9,-1,11,13,15,17,19,21,23,25,27,-1,29,-1,31,-1,33,-1,35,37,39,41,43,-1,-1,-1,-1,-1,-1,-1,-1,-1,-1,-1,-1,-1,-1,-1,-1],"loss_changes":[1.3002531E2,5.455017E-2,1.4393616E2,0E0,0E0,7.696396E0,1.4807874E2,0E0,6.377699E0,1.5603561E0,1.2237677E2,6.515312E-1,1.929103E1,6.197467E-1,7.519531E-1,3.215354E1,9.027464E1,0E0,1.3055992E-1,0E0,5.518949E0,0E0,5.059368E-1,0E0,6.2844086E-1,6.548748E0,2.6936544E1,3.086235E0,9.2524826E1,0E0,0E0,0E0,0E0,0E0,0E0,0E0,0E0,0E0,0E0,0E0,0E0,0E0,0E0,0E0,0E0],"parents":[2147483647,0,0,1,1,2,2,5,5,6,6,8,8,9,9,10,10,11,11,12,12,13,13,14,14,15,15,16,16,18,18,20,20,22,22,24,24,25,25,26,26,27,27,28,28],"right_children":[2,4,6,-1,-1,8,10,-1,12,14,16,18,20,22,24,26,28,-1,30,-1,32,-1,34,-1,36,38,40,42,44,-1,-1,-1,-1,-1,-1,-1,-1,-1,-1,-1,-1,-1,-1,-1,-1],"split_conditions":[8.000001E0,8.000001E0,6.000001E0,-1.6039163E-1,-1.825073E-1,1.0000001E1,8.000001E0,-1.6189271E-1,4.000001E0,1.5E0,1.2000001E1,4.000001E0,6.000001E0,4.000001E0,2.000001E0,1.8E1,1.2000001E1,4.6672158E-2,1.5E0,-1.5967378E-1,1.5E0,-1.2837517E-1,2.000001E0,4.7729336E-2,-9.536743E-7,1.5E0,1.6E1,2.000001E0,8.000001E0,-7.32804E-2,-1.5936013E-1,1.8447259E-1,-1.1347637E-1,1.2750453E-1,-3.052249E-2,-1.5910724E-1,3.140224E-2,5.1705074E-2,-1.06553845E-1,-4.9254823E-2,5.152317E-2,1.4444058E-1,-1.7799094E-1,-1.5477155E-1,7.180283E-2],"split_indices":[18784,8196,12374,0,0,3811,22210,0,3825,23476,19301,17808,3813,10829,15505,30758,2932,0,1697,0,27342,0,13316,0,5698,23476,27342,3827,18215,0,0,0,0,0,0,0,0,0,0,0,0,0,0,0,0],"split_type":[0,0,0,0,0,0,0,0,0,0,0,0,0,0,0,0,0,0,0,0,0,0,0,0,0,0,0,0,0,0,0,0,0,0,0,0,0,0,0,0,0,0,0,0,0],"sum_hessian":[7.4910474E3,4.223647E2,7.0686826E3,3.4230716E2,8.005753E1,5.506715E2,6.518011E3,4.0915146E2,1.4152002E2,4.1482004E2,6.1031914E3,6.2491802E1,7.902822E1,1.12985115E1,4.0352155E2,1.5593713E3,4.54382E3,1.0618899E0,6.1429913E1,4.210136E1,3.692686E1,3.5491188E0,7.7493925E0,1.1877888E0,4.0233374E2,5.5882874E2,1.00054266E3,1.5014046E2,4.393679E3,4.191885E0,5.723803E1,3.0848166E1,6.0786963E0,1.4352267E0,6.314166E0,4.010728E2,1.2609285E0,2.404682E1,5.347819E2,6.0961523E2,3.909274E2,2.016686E0,1.4812378E2,1.6776787E2,4.2259116E3],"tree_param":{"num_deleted":"0","num_feature":"30980","num_nodes":"45","size_leaf_vector":"0"}},{"base_weights":[1.9575693E-2,7.003504E-1,-6.25902E-2,-2.896213E-1,7.021701E-1,6.8323094E-1,-1.4821894E-1,7.0391613E-1,1.3706739E-1,6.8611455E-1,-4.0566292E-1,9.5504767E-1,-2.0570973E-1,1.9119324E-1,7.058967E-1,2.1430941E-1,6.9260174E-1,1.3440146E0,7.759295E-1,1.0904948E0,-2.4082018E-1,-3.3572057E-1,5.3568166E-1,7.0712775E-1,3.4323424E-2,-5.069785E-1,6.3100153E-1,-2.560798E-1,6.952942E-1,6.525199E-1,1.4033014E0,2.0795439E-1,7.8073573E-1,7.222813E-1,1.2131804E0,6.8746513E-1,-2.9477274E-1,7.0833224E-1,5.3883635E-2,-1.5043448E-1,6.981798E-1,6.687732E-1,1.460617E0,3.13429E-1,7.849072E-1,9.117343E-2,7.436242E-1,7.7837026E-1,1.2881242E0,7.550207E-1,-1.468655E-1,7.937187E-1,-3.388035E-1],"categories":[],"categories_nodes":[],"categories_segments":[],"categories_sizes":[],"default_left":[0,0,0,0,1,1,0,0,0,0,0,0,0,0,1,0,0,0,0,0,0,0,0,1,0,0,0,0,0,0,0,0,0,0,0,0,0,0,0,0,0,0,0,0,0,0,0,0,0,0,0,0,0],"id":21,"left_children":[1,3,5,-1,7,9,11,13,-1,15,-1,17,19,21,23,25,27,29,31,33,35,-1,-1,37,-1,-1,-1,-1,39,-1,41,-1,43,45,47,49,51,-1,-1,-1,-1,-1,-1,-1,-1,-1,-1,-1,-1,-1,-1,-1,-1],"loss_changes":[3.781012E2,1.5147705E0,3.853097E2,0E0,6.2075806E-1,2.2294617E0,3.4342615E2,6.00708E-1,0E0,1.7494812E0,0E0,1.7642548E1,2.3437508E2,9.347764E-1,5.72052E-1,3.2829664E0,1.7393494E0,2.4950867E0,3.4537506E-1,5.260544E0,2.5108603E2,0E0,0E0,5.282898E-1,0E0,0E0,0E0,0E0,1.5931396E0,0E0,2.212555E0,0E0,1.1282349E-1,4.2279625E-1,2.2698364E0,1.5636429E1,2.2719699E2,0E0,0E0,0E0,0E0,0E0,0E0,0E0,0E0,0E0,0E0,0E0,0E0,0E0,0E0,0E0,0E0],"parents":[2147483647,0,0,1,1,2,2,4,4,5,5,6,6,7,7,9,9,11,11,12,12,13,13,14,14,15,15,16,16,17,17,18,18,19,19,20,20,23,23,28,28,30,30,32,32,33,33,34,34,35,35,36,36],"right_children":[2,4,6,-1,8,10,12,14,-1,16,-1,18,20,22,24,26,28,30,32,34,36,-1,-1,38,-1,-1,-1,-1,40,-1,42,-1,44,46,48,50,52,-1,-1,-1,-1,-1,-1,-1,-1,-1,-1,-1,-1,-1,-1,-1,-1],"split_conditions":[8.000001E0,2.000001E0,1.0000001E1,-8.688639E-2,-9.536743E-7,-9.536743E-7,8.000001E0,8.000001E0,4.112022E-2,1.5E0,-1.2169888E-1,8.000001E0,1.2000001E1,2.000001E0,-9.536743E-7,4.000001E0,2.000001E0,4.000001E0,2.000001E0,6.000001E0,8.000001E0,-1.0071617E-1,1.6070451E-1,-9.536743E-7,1.0297027E-2,-1.5209356E-1,1.8930046E-1,-7.682394E-2,2.000001E0,1.9575597E-1,6.000001E0,6.238632E-2,2.000001E0,4.000001E0,3.5E0,6.000001E0,8.000001E0,2.1249968E-1,1.616509E-2,-4.5130346E-2,2.0945394E-1,2.0063196E-1,4.381851E-1,9.4028704E-2,2.3547217E-1,2.7352031E-2,2.2308727E-1,2.3351109E-1,3.8643727E-1,2.2650622E-1,-4.4059653E-2,2.3811562E-1,-1.0164105E-1],"split_indices":[18215,18793,18211,0,24013,29046,22068,14499,0,10829,0,4865,27248,22210,18455,22210,2932,4859,9764,13988,4859,0,0,6921,0,0,0,0,9924,0,13988,0,4056,4045,13978,30284,27246,0,0,0,0,0,0,0,0,0,0,0,0,0,0,0,0],"split_type":[0,0,0,0,0,0,0,0,0,0,0,0,0,0,0,0,0,0,0,0,0,0,0,0,0,0,0,0,0,0,0,0,0,0,0,0,0,0,0,0,0,0,0,0,0,0,0,0,0,0,0,0,0],"sum_hessian":[6.7576934E3,7.269684E2,6.030725E3,1.0436288E0,7.2592474E2,6.2036914E2,5.410356E3,7.2344385E2,2.4809363E0,6.190995E2,1.2696221E0,2.6719455E2,5.1431616E3,3.1590726E0,7.202847E2,8.858636E0,6.1024084E2,8.219633E1,1.8499823E2,1.3484663E2,5.008315E3,1.258927E0,1.9001456E0,7.18914E2,1.3707745E0,3.164412E0,5.6942244E0,1.4606924E0,6.0878015E2,7.4388623E0,7.475746E1,1.9237759E0,1.8307446E2,3.54222E1,9.942444E1,2.7445282E2,4.733862E3,7.1750665E2,1.4073012E0,1.8961691E0,6.0688403E2,6.3280816E0,6.842938E1,2.2934275E0,1.8078104E2,1.3311785E0,3.4091022E1,1.6291286E1,8.313315E1,2.5398293E2,2.0469887E1,1.833834E2,4.5504785E3],"tree_param":{"num_deleted":"0","num_feature":"30980","num_nodes":"53","size_leaf_vector":"0"}},{"base_weights":[-6.0586683E-3,6.646477E-1,-4.621276E-1,-3.0185655E-1,6.6664904E-1,5.975593E-1,-5.0324434E-1,-4.3392488E-1,1.7845276E-1,-1.6547522E-1,6.686294E-1,7.371732E-1,1.884393E-1,6.154123E-1,-5.315662E-1,3.1909868E-1,-3.2887703E-1,-4.2518046E-1,6.6992897E-1,6.777787E-1,5.622765E-2,7.748798E-1,4.6043804E-1,2.4658398E-1,-5.334337E-1,6.283814E-2,-4.9579808E-1,2.8270427E-2,6.7211103E-1,2.3216635E-1,8.490055E-1,8.3017635E-1,-5.893279E-2,7.800403E-1,-2.164442E-3,-3.804633E-1,4.1000265E-1,-2.7799708E-1,-5.3819484E-1,-4.4734553E-1,5.6653225E-1,7.0982003E-1,6.3532937E-1,4.2752555E-1,-4.8641916E-2,9.5381325E-1,-1.4223765E-1,-5.0163025E-1,1.10845484E-1,-3.692449E-1,6.0389143E-1,2.447551E-1,-3.6024997E-1,-5.387589E-1,1.8858455E-1],"categories":[],"categories_nodes":[],"categories_segments":[],"categories_sizes":[],"default_left":[0,0,0,1,0,0,0,0,0,0,0,0,0,0,0,0,0,0,0,0,0,0,0,0,0,0,0,0,0,0,0,0,0,0,0,0,0,0,1,0,0,0,0,0,0,0,0,0,0,0,0,0,0,0,0],"id":22,"left_children":[1,3,5,7,9,11,13,-1,-1,15,17,-1,19,21,23,-1,25,-1,27,29,31,-1,33,35,37,-1,-1,39,41,43,-1,-1,45,-1,47,-1,49,51,53,-1,-1,-1,-1,-1,-1,-1,-1,-1,-1,-1,-1,-1,-1,-1,-1],"loss_changes":[1.9394991E3,5.1654053E0,1.647445E2,4.5749342E-1,4.331543E0,7.939308E0,1.154527E2,0E0,0E0,6.4994025E-1,3.9173584E0,0E0,2.3768044E0,1.8721085E0,5.2822876E0,0E0,3.9991164E-1,0E0,3.55542E0,4.0180707E-1,2.7653277E0,0E0,7.1285305E0,1.0956359E0,4.151306E0,0E0,0E0,2.7356813E0,3.0778809E0,2.158331E-1,0E0,0E0,2.4526832E0,0E0,1.2236007E0,0E0,1.394728E0,2.9595084E0,1.524292E0,0E0,0E0,0E0,0E0,0E0,0E0,0E0,0E0,0E0,0E0,0E0,0E0,0E0,0E0,0E0,0E0],"parents":[2147483647,0,0,1,1,2,2,3,3,4,4,5,5,6,6,9,9,10,10,12,12,13,13,14,14,16,16,18,18,19,19,20,20,22,22,23,23,24,24,27,27,28,28,29,29,32,32,34,34,36,36,37,37,38,38],"right_children":[2,4,6,8,10,12,14,-1,-1,16,18,-1,20,22,24,-1,26,-1,28,30,32,-1,34,36,38,-1,-1,40,42,44,-1,-1,46,-1,48,-1,50,52,54,-1,-1,-1,-1,-1,-1,-1,-1,-1,-1,-1,-1,-1,-1,-1,-1],"split_conditions":[8.000001E0,4.000001E0,8.000001E0,1.5E0,1.5E0,4.000001E0,8.000001E0,-1.3017747E-1,5.353583E-2,1.5E0,4.000001E0,2.2115196E-1,4.000001E0,4.000001E0,4.000001E0,9.572961E-2,1.5E0,-1.2755415E-1,2.5E0,4.000001E0,2.000001E0,2.3246396E-1,4.000001E0,4.000001E0,2.5E0,1.8851442E-2,-1.4873943E-1,1.2000001E1,1.0000001E1,2.000001E0,2.5470167E-1,2.4905291E-1,2.000001E0,2.3401211E-1,4.000001E0,-1.14139E-1,2.000001E0,8.000001E0,-9.536743E-7,-1.3420366E-1,1.6995968E-1,2.1294601E-1,1.9059882E-1,1.2825768E-1,-1.4592576E-2,2.86144E-1,-4.2671297E-2,-1.5048908E-1,3.3253647E-2,-1.10773474E-1,1.8116744E-1,7.342654E-2,-1.0807499E-1,-1.6162767E-1,5.657537E-2],"split_indices":[23990,18784,3811,27728,27798,12374,23998,0,0,1051,18793,0,18266,3825,3813,0,18266,0,22210,14053,27364,0,3813,10227,3825,0,0,10829,3811,1051,0,0,12025,0,3827,0,29999,13316,3830,0,0,0,0,0,0,0,0,0,0,0,0,0,0,0,0],"split_type":[0,0,0,0,0,0,0,0,0,0,0,0,0,0,0,0,0,0,0,0,0,0,0,0,0,0,0,0,0,0,0,0,0,0,0,0,0,0,0,0,0,0,0,0,0,0,0,0,0,0,0,0,0,0,0],"sum_hessian":[6.338542E3,2.5653772E3,3.773165E3,4.9914303E0,2.5603857E3,1.4042824E2,3.6327368E3,3.9906988E0,1.0007312E0,5.882978E0,2.5545027E3,1.0410135E2,3.6326885E1,8.9189766E1,3.543547E3,1.2432449E0,4.639733E0,2.6443677E0,2.5518584E3,6.849429E0,2.9477455E1,4.198618E1,4.7203587E1,8.169842E0,3.5353772E3,1.5726726E0,3.0670605E0,8.696049E0,2.5431624E3,2.5552835E0,4.2941456E0,3.0138266E0,2.6463629E1,2.7510775E1,1.9692812E1,1.4144315E0,6.7554097E0,6.577854E1,3.4695986E3,4.7063537E0,3.9896948E0,1.2467169E3,1.2964453E3,1.1987956E0,1.3564879E0,1.2171338E0,2.5246496E1,2.9990788E0,1.6693733E1,1.1657585E0,5.5896516E0,8.674261E0,5.710428E1,3.4671667E3,2.4318657E0],"tree_param":{"num_deleted":"0","num_feature":"30980","num_nodes":"55","size_leaf_vector":"0"}},{"base_weights":[1.6505955E-2,6.786137E-1,-1.383016E-1,7.0313376E-1,5.0077915E-1,6.8367136E-1,-1.8389933E-1,7.0368135E-1,2.7426055E-1,7.0150006E-1,2.0898667E-1,-4.5312533E-1,6.954614E-1,6.8711525E-1,-2.2372584E-1,6.20375E-1,1.00067966E-1,7.035041E-1,-3.8393807E-1,7.633686E-1,4.4154355E-1,-5.331492E-1,-1.524844E-1,4.2935494E-2,6.816703E-1,6.5599376E-1,-2.7641188E-2,-3.0517414E-1,7.095372E-1,7.4300504E-1,1.7745537E-1,-5.342049E-1,2.2117919E-1,-5.116066E-1,-9.5250025E-2,-9.4843484E-2,7.9467064E-1,-3.4132138E-1,7.1524256E-1,6.7426735E-1,-9.0727836E-2,2.1120661E-1,-5.3525555E-1,1.4729602E0,-5.202619E-1,1.2134057E0,-1.24936976E-1],"categories":[],"categories_nodes":[],"categories_segments":[],"categories_sizes":[],"default_left":[0,0,0,1,0,0,0,0,0,0,0,0,1,0,0,0,0,0,0,0,0,1,0,0,0,0,1,0,0,0,0,0,0,0,0,0,0,0,0,0,0,0,0,0,0,0,0],"id":23,"left_children":[1,3,5,7,9,11,13,-1,-1,-1,15,-1,17,19,21,23,25,27,-1,-1,29,31,33,-1,-1,-1,35,-1,37,-1,39,41,-1,43,45,-1,-1,-1,-1,-1,-1,-1,-1,-1,-1,-1,-1],"loss_changes":[6.937755E2,5.240967E0,2.0574203E2,7.122803E-2,9.159954E0,4.1824493E0,1.8048578E2,0E0,0E0,0E0,2.9034357E0,0E0,2.7527466E0,3.9239502E0,1.0951851E2,4.5429325E-1,3.8179376E0,1.9461517E0,0E0,0E0,4.349326E0,8.588257E-1,8.304801E1,0E0,0E0,0E0,2.5335102E0,0E0,1.9398346E0,0E0,4.2337866E0,8.406677E-1,0E0,1.0308487E1,1.356723E2,0E0,0E0,0E0,0E0,0E0,0E0,0E0,0E0,0E0,0E0,0E0,0E0],"parents":[2147483647,0,0,1,1,2,2,3,3,4,4,5,5,6,6,10,10,12,12,13,13,14,14,15,15,16,16,17,17,20,20,21,21,22,22,26,26,28,28,30,30,31,31,33,33,34,34],"right_children":[2,4,6,8,10,12,14,-1,-1,-1,16,-1,18,20,22,24,26,28,-1,-1,30,32,34,-1,-1,-1,36,-1,38,-1,40,42,-1,44,46,-1,-1,-1,-1,-1,-1,-1,-1,-1,-1,-1,-1],"split_conditions":[8.000001E0,1.2000001E1,2.5E0,1.5E0,4.000001E0,2.000001E0,1.2000001E1,2.1110441E-1,8.227817E-2,2.1045002E-1,8.000001E0,-1.359376E-1,-9.536743E-7,6.000001E0,8.000001E0,2.000001E0,2.5E0,4.000001E0,-1.1518142E-1,2.290106E-1,4.000001E0,-9.536743E-7,8.000001E0,1.28806485E-2,2.045011E-1,1.9679813E-1,-9.536743E-7,-9.155224E-2,2.000001E0,2.2290152E-1,2.000001E0,2.000001E0,6.635376E-2,4.000001E0,4.000001E0,-2.8453046E-2,2.384012E-1,-1.0239642E-1,2.1457277E-1,2.0228021E-1,-2.7218351E-2,6.336199E-2,-1.6057667E-1,4.418881E-1,-1.5607858E-1,3.6402172E-1,-3.7481096E-2],"split_indices":[22210,10829,24396,11203,10846,25127,9750,0,0,0,14499,0,2828,4042,23990,29808,14495,8484,0,0,4056,6892,8196,0,0,0,9758,0,18215,0,23476,19571,0,3113,2932,0,0,0,0,0,0,0,0,0,0,0,0],"split_type":[0,0,0,0,0,0,0,0,0,0,0,0,0,0,0,0,0,0,0,0,0,0,0,0,0,0,0,0,0,0,0,0,0,0,0,0,0,0,0,0,0,0,0,0,0,0,0],"sum_hessian":[6.766673E3,1.2816608E3,5.485012E3,1.1237612E3,1.5789954E2,2.875455E2,5.197467E3,1.1216882E3,2.072919E0,9.271665E1,6.5182884E1,2.567353E0,2.8497815E2,2.2654848E2,4.9709185E3,1.26621E1,5.2520782E1,2.8321613E2,1.7620171E0,1.7126106E2,5.5287407E1,9.2909424E2,4.0418242E3,1.3782848E0,1.1283815E1,9.038596E0,4.3482185E1,1.3891143E0,2.81827E2,2.4970104E1,3.0317303E1,9.2808716E2,1.0070757E0,5.545172E2,3.487307E3,4.1014957E1,2.4672282E0,1.2041864E0,2.806228E2,1.0097459E1,2.0219845E1,1.0247004E0,9.2706244E2,1.6732807E0,5.5284393E2,7.6470535E1,3.4108364E3],"tree_param":{"num_deleted":"0","num_feature":"30980","num_nodes":"47","size_leaf_vector":"0"}},{"base_weights":[-1.8676743E-2,6.901771E-1,-2.4281238E-1,7.0730287E-1,4.7342554E-1,5.3772455E-1,-3.5282856E-1,7.075376E-2,7.0789444E-1,6.444719E-2,7.002686E-1,-2.0762789E-1,5.817569E-1,4.68022E-1,-4.1151518E-1,7.0836985E-1,2.4375953E-1,6.65503E-1,-1.0615977E-1,1.9230093E-1,7.0643365E-1,7.4713224E-1,-3.240524E-1,-4.4510412E-1,6.107126E-1,6.9809663E-1,-2.790606E-1,5.2944154E-1,-4.6279687E-1,2.4147013E-1,7.0873916E-1,8.806124E-1,-2.1210524E-1,4.1562596E-1,-5.2052027E-1,1.9059242E-1,-5.0242436E-1,-5.4532063E-1,6.2995213E-1,7.1899825E-1,-7.435652E-2,6.9451183E-1,-3.9229658E-1,8.4317565E-1,8.981948E-2,6.09631E-1,-5.0082856E-1,1.0808784E0,3.222617E-1,6.4621997E-1,-3.5266802E-1,-2.8985873E-1,6.0599476E-1,8.36984E-2,-5.5712634E-1,-3.696698E-1,6.49812E-1,-3.6786294E-1,7.260614E-1,-4.023153E-1,1.8551685E-1,7.504532E-1,2.339228E-1,3.980476E-1,-4.6980813E-1,7.76523E-1,1.1015906E0,7.392268E-1,-3.2335687E-1,-4.7209433E-1,6.779304E-1,7.997126E-1,-5.1520133E-1],"categories":[],"categories_nodes":[],"categories_segments":[],"categories_sizes":[],"default_left":[0,0,0,0,1,0,0,0,1,0,0,0,0,0,0,0,0,0,0,0,0,0,0,0,0,0,0,0,0,0,0,0,0,0,0,0,0,0,0,0,0,1,0,0,0,0,0,0,0,0,0,0,0,0,0,0,0,0,0,0,0,0,0,0,0,0,0,0,0,0,0,0,0],"id":24,"left_children":[1,3,5,7,9,11,13,-1,15,17,19,21,23,25,27,29,-1,-1,31,-1,-1,-1,33,35,37,39,41,43,45,-1,-1,47,49,51,53,-1,-1,-1,55,57,59,61,63,65,67,69,71,-1,-1,-1,-1,-1,-1,-1,-1,-1,-1,-1,-1,-1,-1,-1,-1,-1,-1,-1,-1,-1,-1,-1,-1,-1,-1],"loss_changes":[1.002664E3,5.2929077E0,4.119194E2,4.7827148E-1,1.0534834E1,1.9573624E1,2.026629E2,0E0,1.3665771E-1,4.3557415E0,9.355545E-2,3.9991474E0,1.6920197E1,4.847894E1,1.895487E2,7.0129395E-2,0E0,0E0,3.6797345E0,0E0,0E0,0E0,4.695657E0,6.763723E-1,1.2464874E1,3.5256348E0,7.642836E0,2.7953583E1,1.5206506E2,0E0,0E0,3.56071E-2,3.9653244E0,1.1191055E0,5.9512186E-1,0E0,0E0,0E0,1.0891571E1,1.875206E0,6.347582E-1,1.3232231E-2,3.8950462E0,1.1851349E0,2.3247679E1,9.768364E0,6.759186E1,0E0,0E0,0E0,0E0,0E0,0E0,0E0,0E0,0E0,0E0,0E0,0E0,0E0,0E0,0E0,0E0,0E0,0E0,0E0,0E0,0E0,0E0,0E0,0E0,0E0,0E0],"parents":[2147483647,0,0,1,1,2,2,3,3,4,4,5,5,6,6,8,8,9,9,10,10,11,11,12,12,13,13,14,14,15,15,18,18,22,22,23,23,24,24,25,25,26,26,27,27,28,28,31,31,32,32,33,33,34,34,38,38,39,39,40,40,41,41,42,42,43,43,44,44,45,45,46,46],"right_children":[2,4,6,8,10,12,14,-1,16,18,20,22,24,26,28,30,-1,-1,32,-1,-1,-1,34,36,38,40,42,44,46,-1,-1,48,50,52,54,-1,-1,-1,56,58,60,62,64,66,68,70,72,-1,-1,-1,-1,-1,-1,-1,-1,-1,-1,-1,-1,-1,-1,-1,-1,-1,-1,-1,-1,-1,-1,-1,-1,-1,-1],"split_conditions":[8.000001E0,1.0000001E1,1.0000001E1,2.000001E0,-9.536743E-7,8.000001E0,4.000001E0,2.1226129E-2,-9.536743E-7,2.000001E0,2.000001E0,4.000001E0,6.000001E0,8.000001E0,8.000001E0,2.000001E0,7.312786E-2,1.9965091E-1,2.000001E0,5.769028E-2,2.1193011E-1,2.2413968E-1,4.000001E0,1.5E0,4.000001E0,1.2000001E1,4.000001E0,1.0000001E1,6.000001E0,7.244104E-2,2.1262176E-1,2.000001E0,4.000001E0,4.000001E0,2.000001E0,5.717773E-2,-1.5072732E-1,-1.635962E-1,4.000001E0,2.000001E0,6.000001E0,1.5E0,2.000001E0,6.000001E0,4.000001E0,4.000001E0,1.5E0,3.242635E-1,9.667851E-2,1.93866E-1,-1.0580041E-1,-8.695762E-2,1.8179843E-1,2.510952E-2,-1.671379E-1,-1.10900946E-1,1.949436E-1,-1.1035889E-1,2.1781842E-1,-1.2069459E-1,5.565506E-2,2.2513597E-1,7.017684E-2,1.19414285E-1,-1.4094244E-1,2.329569E-1,3.304772E-1,2.2176805E-1,-9.7007066E-2,-1.4162831E-1,2.0337914E-1,2.3991379E-1,-1.545604E-1],"split_indices":[8196,10537,2982,5004,10567,23990,9967,0,11682,18784,29051,20150,22210,19435,30040,10323,0,0,9967,0,0,0,27477,29931,4859,1409,22053,4045,22053,0,0,19435,30040,3811,4045,0,0,0,13070,12374,13953,13953,4045,18587,5326,22210,20150,0,0,0,0,0,0,0,0,0,0,0,0,0,0,0,0,0,0,0,0,0,0,0,0,0,0],"split_type":[0,0,0,0,0,0,0,0,0,0,0,0,0,0,0,0,0,0,0,0,0,0,0,0,0,0,0,0,0,0,0,0,0,0,0,0,0,0,0,0,0,0,0,0,0,0,0,0,0,0,0,0,0,0,0,0,0,0,0,0,0,0,0,0,0,0,0,0,0,0,0,0,0],"sum_hessian":[6.3087944E3,1.5150863E3,4.793708E3,1.402046E3,1.1304031E2,5.9171967E2,4.2019883E3,1.4137788E0,1.4006322E3,4.0787716E1,7.2252594E1,3.2799236E1,5.589204E2,2.7990988E2,3.9220786E3,1.3986733E3,1.9588304E0,8.376421E0,3.2411297E1,1.2524087E0,7.100018E1,2.9760756E0,2.982316E1,1.4934184E1,5.439862E2,2.1405437E2,6.585551E1,2.0222223E2,3.7198562E3,1.6229367E0,1.3970504E3,2.4335318E0,2.9977764E1,6.0248446E0,2.3798317E1,1.0429164E0,1.3891268E1,8.457582E0,5.355286E2,2.084823E2,5.572061E0,6.326725E0,5.952878E1,1.1747139E2,8.475084E1,1.2688514E2,3.5929712E3,1.1023176E0,1.3312143E0,3.7122285E0,2.6265535E1,1.169223E0,4.8556213E0,1.2859521E0,2.2512363E1,1.008916E1,5.2543945E2,1.0162848E0,2.0746602E2,2.2210224E0,3.3510387E0,5.080351E0,1.2463739E0,4.9474025E0,5.458138E1,9.656853E1,2.0902864E1,3.2647774E1,5.2103065E1,7.1845326E0,1.1970061E2,3.8676018E1,3.5542952E3],"tree_param":{"num_deleted":"0","num_feature":"30980","num_nodes":"73","size_leaf_vector":"0"}},{"base_weights":[-7.41523E-3,-4.0106082E-1,3.0110735E-2,-4.852213E-1,-3.3450937E-1,-5.0573635E-1,6.179145E-2,4.6753448E-1,-4.911685E-1,-4.1273668E-1,-2.4626169E-1,-5.237587E-1,-3.4424564E-1,-4.9725035E-1,9.047134E-2,3.5948944E-1,-4.9741435E-1,4.6383643E-1,-4.213354E-1,1.8844043E-1,-2.940895E-1,2.0475994E-1,-5.267855E-1,2.3707679E-1,-4.055462E-1,-1.1531228E-1,-5.10983E-1,-1.175463E-1,1.6307303E-1,2.954712E-1,-5.0318164E-1,2.865912E-1,-4.29066E-1,-1.6249903E-1,5.177981E-1,4.2484432E-1,-3.0741328E-1,5.283412E-1,-2.8908372E-1,1.6598296E-1,-4.7844824E-1,-3.8754582E-1,6.1371336E-3,1.7417575E-1,-5.1433855E-1,-3.073529E-1,-4.5708153E-2,-1.8816637E-1,2.098387E-1,3.955335E-2,-5.091021E-1,2.2690648E-1,-4.3773574E-1,5.2208984E-1,-3.208428E-1,7.836356E-1,2.7200097E-1,5.6288886E-1,8.218079E-2,5.8292377E-1,-3.1766793E-1,-3.1878585E-1,4.4963244E-1,1.0850322E-1,-5.0516987E-1,3.4055063E-1,-1.1108678E-1,-1.05202675E-1,-5.210017E-1,-4.2303833E-1,-1.9012725E-1,-5.5974495E-1,-1.3271496E-2,-5.153875E-1,-2.4565876E-2,-6.0726917E-1,2.2736979E-1],"categories":[],"categories_nodes":[],"categories_segments":[],"categories_sizes":[],"default_left":[0,0,0,0,0,0,0,0,0,0,0,0,0,0,0,0,0,0,0,0,0,0,0,1,0,0,0,0,0,0,0,0,0,0,0,0,0,0,0,0,0,0,0,0,0,0,0,0,0,0,0,0,0,0,0,0,0,0,0,0,0,0,0,0,0,0,0,0,0,0,0,0,0,0,0,0,0],"id":25,"left_children":[1,3,5,7,9,11,13,-1,15,17,19,21,23,25,27,-1,29,-1,31,33,35,-1,-1,37,39,41,43,45,47,-1,49,-1,51,53,55,57,59,-1,-1,61,63,-1,65,-1,67,69,71,73,75,-1,-1,-1,-1,-1,-1,-1,-1,-1,-1,-1,-1,-1,-1,-1,-1,-1,-1,-1,-1,-1,-1,-1,-1,-1,-1,-1,-1],"loss_changes":[1.0400495E2,3.2698212E0,1.0915525E2,1.7502708E0,2.2828026E0,8.643799E-1,9.736986E1,0E0,1.5984116E0,1.5643578E0,3.4814463E0,8.156738E-1,1.4842839E0,1.4955368E0,8.7232925E1,0E0,1.3635025E0,0E0,1.1101112E0,2.042469E0,1.5563498E0,0E0,0E0,8.189112E-1,1.5630021E0,3.8516366E-1,7.466507E-1,2.0365875E1,7.0361885E1,0E0,8.6880493E-1,0E0,1.1163445E0,1.1391871E0,3.7355804E-1,1.01708055E-1,1.5246973E0,0E0,0E0,7.9930395E-1,5.541458E-1,0E0,3.9026433E-1,0E0,7.211914E-1,5.482395E0,1.8090797E1,2.6945028E1,5.4265854E1,0E0,0E0,0E0,0E0,0E0,0E0,0E0,0E0,0E0,0E0,0E0,0E0,0E0,0E0,0E0,0E0,0E0,0E0,0E0,0E0,0E0,0E0,0E0,0E0,0E0,0E0,0E0,0E0],"parents":[2147483647,0,0,1,1,2,2,3,3,4,4,5,5,6,6,8,8,9,9,10,10,11,11,12,12,13,13,14,14,16,16,18,18,19,19,20,20,23,23,24,24,25,25,26,26,27,27,28,28,30,30,32,32,33,33,34,34,35,35,36,36,39,39,40,40,42,42,44,44,45,45,46,46,47,47,48,48],"right_children":[2,4,6,8,10,12,14,-1,16,18,20,22,24,26,28,-1,30,-1,32,34,36,-1,-1,38,40,42,44,46,48,-1,50,-1,52,54,56,58,60,-1,-1,62,64,-1,66,-1,68,70,72,74,76,-1,-1,-1,-1,-1,-1,-1,-1,-1,-1,-1,-1,-1,-1,-1,-1,-1,-1,-1,-1,-1,-1,-1,-1,-1,-1,-1,-1],"split_conditions":[1.0000001E1,8.000001E0,8.000001E0,4.000001E0,1.6E1,8.000001E0,8.000001E0,1.4026035E-1,1.5E0,2.000001E0,6.000001E0,1.5E0,1.5E0,1.5E0,1.2000001E1,1.07846834E-1,2.000001E0,1.3915093E-1,4.000001E0,8.000001E0,2.000001E0,6.1427984E-2,-1.5803565E-1,-9.536743E-7,1.5E0,4.000001E0,2.000001E0,1.0000001E1,8.000001E0,8.864136E-2,2.000001E0,8.597736E-2,4.000001E0,1.5E0,1.5E0,6.000001E0,4.000001E0,1.5850236E-1,-8.6725116E-2,1.5E0,2.000001E0,-1.16263755E-1,2.000001E0,5.225273E-2,2E0,1.6E1,8.000001E0,6.000001E0,4.000001E0,1.1866006E-2,-1.5273064E-1,6.807195E-2,-1.3132073E-1,1.5662695E-1,-9.6252844E-2,2.3509069E-1,8.160029E-2,1.6886666E-1,2.4654238E-2,1.7487714E-1,-9.5300384E-2,-9.563576E-2,1.3488974E-1,3.255097E-2,-1.5155096E-1,1.0216519E-1,-3.3326034E-2,-3.1560805E-2,-1.5630051E-1,-1.269115E-1,-5.7038177E-2,-1.679235E-1,-3.9814487E-3,-1.5461625E-1,-7.3697628E-3,-1.8218076E-1,6.821094E-2],"split_indices":[30064,13316,8196,5485,27342,10537,22210,0,26274,9715,15180,8095,2413,23476,19000,0,12299,0,30378,19000,14877,0,0,10567,10227,10829,15505,13316,23990,0,10606,0,16043,30284,1051,13953,23529,0,0,13953,9030,0,13316,0,18172,27728,2982,3825,12869,0,0,0,0,0,0,0,0,0,0,0,0,0,0,0,0,0,0,0,0,0,0,0,0,0,0,0,0],"split_type":[0,0,0,0,0,0,0,0,0,0,0,0,0,0,0,0,0,0,0,0,0,0,0,0,0,0,0,0,0,0,0,0,0,0,0,0,0,0,0,0,0,0,0,0,0,0,0,0,0,0,0,0,0,0,0,0,0,0,0,0,0,0,0,0,0,0,0,0,0,0,0,0,0,0,0,0,0],"sum_hessian":[7.0388975E3,6.1177014E2,6.4271274E3,2.6736783E2,3.444023E2,3.5794183E2,6.0691855E3,1.1771107E0,2.661907E2,1.8061705E2,1.6378528E2,3.1998788E2,3.7953934E1,2.9536945E2,5.773816E3,1.5279922E0,2.6466272E2,1.2402576E0,1.7937679E2,1.5942804E1,1.4784247E2,1.0482066E0,3.189397E2,3.3469393E0,3.460699E1,1.0577588E1,2.8479184E2,1.4936385E3,4.2801777E3,1.5484647E0,2.6311426E2,1.547989E0,1.778288E2,7.963791E0,7.979014E0,2.1280725E0,1.457144E2,2.1516922E0,1.1952472E0,3.770519E0,3.0836473E1,2.5872226E0,7.9903655E0,1.1398687E0,2.8365198E2,4.0919876E2,1.0844398E3,5.0256647E2,3.777611E3,2.7779348E0,2.6033633E2,1.9912844E0,